{"type":"LSTM","options":{"inputSize":29,"inputRange":29,"hiddenLayers":[20,20],"outputSize":29,"decayRate":0.999,"smoothEps":1e-8,"regc":0.000001,"clipval":5,"maxPredictionLength":100,"dataFormatter":{"indexTable":{"1":3,"2":24,"f":0,"a":1,"g":2,"n":4,"i":5,"e":6,"r":7,"u":8,"c":9,"k":10," ":11,"b":12,"l":13,"s":14,"y":15,"p":16,"o":17,"m":18,"h":19,"t":20,"q":21,"w":22,"v":23,"d":25,"stop-input":26,"start-output":27,"unrecognized":28},"characterTable":{"0":"f","1":"a","2":"g","3":"1","4":"n","5":"i","6":"e","7":"r","8":"u","9":"c","10":"k","11":" ","12":"b","13":"l","14":"s","15":"y","16":"p","17":"o","18":"m","19":"h","20":"t","21":"q","22":"w","23":"v","24":"2","25":"d","26":null,"27":null,"28":null},"values":[{"input":"fag","output":1},{"input":"nigger","output":1},{"input":"fuck blacks","output":1},{"input":"fuck gays","output":1},{"input":"gay people suck","output":1},{"input":"im homophobic","output":1},{"input":"im racist","output":1},{"input":"i hate lgbtq","output":1},{"input":"i hate gays","output":1},{"input":"i hate other races","output":1},{"input":"white supremacy","output":1},{"input":"i love gays","output":2},{"input":"i support lgbtq","output":2},{"input":"black people are cool","output":2},{"input":"i love everyone","output":2},{"input":"homophobic people suck","output":2},{"input":"fuck you dude","output":2},{"input":"all races are equal","output":2},{"input":"fuck everyone","output":2},{"input":"how are you guys","output":2},{"input":"how are you","output":2}],"characters":["f","a","g","1","n","i","e","r","u","c","k"," ","b","l","s","y","p","o","m","h","t","q","w","v","2","d","stop-input","start-output","unrecognized"],"specialIndexes":[26,27,28]},"activation":"leaky-relu"},"trainOpts":{"iterations":200,"errorThresh":0.001,"log":true,"logPeriod":100,"learningRate":0.001,"callbackPeriod":10,"timeout":"Infinity","momentum":0.1},"input":{"rows":30,"columns":29,"weights":[-0.15907403826713562,0.1883721649646759,0.07190605998039246,-0.3266545534133911,0.14989160001277924,-0.3667861521244049,0.4692703187465668,0.46176502108573914,0.5653994679450989,0.270264208316803,0.11450407654047012,0.391952782869339,-0.27029910683631897,-0.4889073669910431,-0.12638887763023376,-0.4069560766220093,-0.17824122309684753,-0.5769723653793335,-0.12499913573265076,0.08393948525190353,0.2599745988845825,-0.4191223084926605,-0.4731384515762329,-0.437090665102005,0.5031470060348511,-0.369576632976532,-0.06382958590984344,0.0941329300403595,0.26594308018684387,1.1132640838623047,0.9158315062522888,-1.220536470413208,2.2326576709747314,-1.1090929508209229,0.6641587018966675,-0.5898730754852295,-0.6770744323730469,-0.6866493225097656,1.1517266035079956,0.3791056275367737,0.9230620861053467,-0.1854797899723053,0.9330945014953613,1.5573811531066895,-1.4160606861114502,0.664406418800354,0.4160761833190918,-1.0839964151382446,0.8868885040283203,-0.28324538469314575,1.1752241849899292,-0.43830835819244385,-1.4874467849731445,1.2051169872283936,-0.6241292357444763,1.209313154220581,-1.923615574836731,1.6354047060012817,-0.3778229057788849,0.03501926362514496,0.20833972096443176,-0.057242702692747116,-0.1306278109550476,-0.20895785093307495,0.41581031680107117,0.23602089285850525,-0.1512746810913086,-0.25915291905403137,0.7059029340744019,-0.22571708261966705,-0.3506898581981659,-0.2659125030040741,-0.30324849486351013,0.17582838237285614,-0.5000755786895752,-0.4284016788005829,0.06788075715303421,-0.15499699115753174,0.4881593585014343,-0.3860512375831604,0.049645714461803436,0.4539758563041687,-0.3558758795261383,0.6080125570297241,0.5508529543876648,0.33160725235939026,-0.5330252647399902,-0.3057529032230377,0.5077784657478333,0.3075600862503052,-0.3933136761188507,-0.043922197073698044,0.0017651194939389825,0.3635883331298828,0.3447483777999878,0.6187849044799805,0.18198245763778687,0.9180393218994141,-0.17293913662433624,0.29718413949012756,-0.2985590696334839,-0.17166882753372192,-0.5712648034095764,-0.3729405105113983,-0.169083371758461,-0.14508889615535736,-0.06984962522983551,0.13146711885929108,-0.4439409375190735,-0.8914640545845032,-0.4618322551250458,0.5327161550521851,-0.24178005754947662,0.6568010449409485,0.22980421781539917,-0.05047060549259186,0.8191712498664856,1.0560228824615479,-0.5717715620994568,-0.4194280803203583,-1.1981934309005737,0.7488495111465454,-0.9961869716644287,-0.8359410166740417,0.9186355471611023,0.7998494505882263,1.141449213027954,0.9563155174255371,1.260722279548645,0.07642120867967606,1.0424349308013916,-1.054785132408142,1.2859941720962524,1.0417879819869995,-0.43851879239082336,-0.3759346306324005,-0.7173411250114441,0.49917080998420715,-2.257852792739868,-1.1456550359725952,1.1443284749984741,-2.285987615585327,0.9946721792221069,-0.635981559753418,0.062131717801094055,-1.9793381690979004,0.5120996236801147,1.7478687763214111,0.4609938859939575,0.5157066583633423,-0.4900444447994232,0.3586054742336273,0.09754028171300888,0.4589327275753021,-0.7503530979156494,-1.1336283683776855,-0.4338221251964569,-0.4251517951488495,-0.24454692006111145,-0.7527210712432861,-0.2624455392360687,-1.693314552307129,-1.6006561517715454,0.9205756783485413,-0.6536568403244019,1.9801329374313354,-0.149820014834404,0.001560610020533204,-0.4012470543384552,0.12612871825695038,-0.5065018534660339,-1.1370551586151123,0.3911130130290985,0.11814380437135696,0.3931754529476166,0.14290373027324677,-0.49882879853248596,0.2980510890483856,-0.40058207511901855,0.500074028968811,-0.32052871584892273,-0.3430691659450531,-0.2951408624649048,0.48524370789527893,0.58784419298172,0.45540037751197815,0.2982948422431946,0.48559191823005676,0.4152725636959076,-0.43123960494995117,0.5095177292823792,0.3811086118221283,-0.400358110666275,0.5980346202850342,-0.3085263669490814,0.4365141689777374,-0.3765623867511749,-0.42494305968284607,0.5404077768325806,-0.332542359828949,0.25317975878715515,-0.31593912839889526,0.15670236945152283,0.4620252251625061,0.31319472193717957,-0.6283548474311829,0.30196723341941833,-0.369138240814209,0.34625276923179626,-0.3382437825202942,-0.5692575573921204,-0.35276347398757935,0.3180174231529236,0.06501363962888718,0.819521427154541,-0.24296388030052185,0.4177490472793579,0.4525623023509979,-0.3282451033592224,0.44722163677215576,0.32723718881607056,-0.3330462574958801,0.5104708075523376,-0.13811469078063965,0.5790237784385681,-0.2451472133398056,-0.5949310064315796,0.25799745321273804,-0.19448323547840118,0.3206551671028137,-0.4129709303379059,0.20258300006389618,0.35354098677635193,-0.00390973687171936,-0.20086218416690826,0.060470208525657654,-0.037288736552000046,0.3443727493286133,-0.24452169239521027,-0.3143611550331116,-0.1863442212343216,0.13725197315216064,-0.1588631570339203,0.01578390598297119,0.3411116600036621,0.36212170124053955,0.17266236245632172,0.20151983201503754,0.4477420151233673,0.4944101572036743,-0.06071511283516884,0.10887306928634644,-0.3070870637893677,0.31494519114494324,0.19281822443008423,0.3832091689109802,-0.09537524729967117,0.03875302895903587,-0.05878906324505806,-0.16187795996665955,0.08381960541009903,-0.401642769575119,0.04210766777396202,0.38700905442237854,-0.31446439027786255,0.09783203154802322,-0.342302531003952,0.4914540648460388,0.36010032892227173,0.4696717858314514,-0.3413882553577423,0.3064415156841278,-0.4329920709133148,-0.034367866814136505,-0.328056275844574,-0.3339490294456482,0.15621347725391388,-0.3788699209690094,-0.44343048334121704,0.4836784601211548,-0.37518054246902466,0.4599977433681488,-0.39861321449279785,-0.28136366605758667,-0.037790291011333466,-0.060068611055612564,0.20062266290187836,0.49690020084381104,0.37469807267189026,-0.4212363660335541,-0.18063315749168396,0.32703492045402527,0.15187887847423553,-0.529114842414856,0.2643280625343323,-0.4837212860584259,0.4194702208042145,0.3392646610736847,0.693247377872467,0.40575143694877625,0.43216684460639954,0.5309545993804932,0.2814694046974182,-0.4782300889492035,-0.2310568392276764,-0.39441654086112976,-0.3856785297393799,-0.45472824573516846,-0.03400181606411934,0.3027713894844055,0.5454633831977844,-0.3175891935825348,-0.03871145844459534,0.3758154511451721,0.2846553921699524,0.11336245387792587,-0.20574623346328735,0.3287023901939392,0.3348607122898102,0.21291235089302063,0.6106513142585754,-0.36352330446243286,0.6929338574409485,0.02433156594634056,0.4534810781478882,-0.39110067486763,-0.24435167014598846,-0.5862708687782288,0.12062092870473862,0.6904191970825195,0.28822895884513855,0.4909580647945404,0.45358285307884216,0.078870989382267,-0.6894986033439636,0.1931667923927307,0.43363651633262634,-0.47885385155677795,0.5395309329032898,-0.471517950296402,0.49787160754203796,-0.45830199122428894,-0.5435062050819397,1.0362358093261719,-0.4009717106819153,0.6287792325019836,-0.5474445819854736,0.21296027302742004,-0.4403502345085144,-0.335251122713089,0.3633728325366974,-0.39625540375709534,0.20979410409927368,-0.3102813959121704,0.4230749309062958,0.3774319887161255,0.18256385624408722,-0.38428550958633423,0.22144874930381775,-0.5119559168815613,0.034963734447956085,-0.3711995482444763,-0.5639739632606506,0.6079548001289368,-0.4786110818386078,-0.42118600010871887,0.2325366586446762,-0.4499298334121704,0.34566664695739746,-0.44113749265670776,0.4821871221065521,0.5109177827835083,-0.7855862379074097,0.8002123832702637,-0.23264367878437042,0.4447781443595886,-0.3578951954841614,-0.9917410016059875,1.2751502990722656,1.0592143535614014,-1.4250069856643677,0.16303294897079468,-0.8308353424072266,1.6071698665618896,1.4551204442977905,0.9927521347999573,0.5957682728767395,1.0930073261260986,1.642876386642456,1.075579047203064,-1.5014010667800903,-0.9182085394859314,-1.3171125650405884,-1.1344544887542725,-1.5629308223724365,-0.1420285701751709,0.8406838178634644,0.5841742157936096,-1.4152494668960571,-0.9772171974182129,-0.9080792665481567,1.2647044658660889,-1.286131739616394,0.4983185827732086,0.9440152049064636,0.029026836156845093,-0.40554681420326233,0.21154755353927612,0.28957298398017883,-0.28240859508514404,0.1326492875814438,-0.4993361234664917,0.6077373623847961,0.6056749224662781,0.6605443358421326,0.20191062986850739,-0.03117143176496029,0.7486849427223206,-0.3633095324039459,-0.7498767375946045,-0.25222378969192505,-0.4387991428375244,-0.2727796137332916,-0.5748893618583679,-0.21401247382164001,0.51532381772995,0.45824745297431946,-0.46774569153785706,-0.10099519789218903,-0.4853019714355469,0.18454834818840027,-0.2224874496459961,-0.21597187221050262,0.157298281788826,-0.0035744281485676765,0.5714057683944702,0.9968635439872742,-0.678424060344696,0.8203688263893127,-1.057855486869812,0.15311530232429504,-0.305740624666214,-0.18651680648326874,-0.03231241926550865,0.36970728635787964,0.13913775980472565,0.3343352675437927,-0.006655680015683174,0.26577940583229065,0.8966132402420044,-0.7547129988670349,0.11936607956886292,-0.12369485944509506,-0.300381064414978,0.06671688705682755,0.004521452821791172,0.5261994004249573,-0.715254008769989,-1.3424301147460938,0.626082181930542,-0.7430382370948792,1.0876551866531372,-1.0605230331420898,1.0315483808517456,0.390896737575531,0.776401698589325,-1.1269991397857666,1.0578774213790894,-0.6336754560470581,0.11730536073446274,-0.26864093542099,-0.14529940485954285,-0.7451749444007874,0.2763863503932953,0.7781783938407898,0.4616773724555969,-0.03892157971858978,0.3459762632846832,1.015589952468872,-1.3300389051437378,-0.09718721359968185,-0.05952727422118187,-1.345220685005188,0.585526168346405,0.09483148157596588,0.4558318853378296,-0.5530619621276855,-0.953840970993042,1.0286059379577637,-0.34141555428504944,1.0504050254821777,-1.1548445224761963,0.9973455667495728,-1.4537988901138306,0.9235374331474304,1.550458550453186,-0.26880642771720886,0.5543062686920166,-0.6064453125,0.5882640480995178,1.7808917760849,1.2843929529190063,-0.14110994338989258,1.384848713874817,0.09449663758277893,1.8827325105667114,-1.643263339996338,-1.3204485177993774,-0.7598959803581238,-1.4214904308319092,-0.4087587594985962,0.5777447819709778,-0.17753930389881134,-0.5161037445068359,-1.9708915948867798,-0.9339479207992554,0.04169788956642151,1.1236445903778076,-0.9752369523048401,-0.25886034965515137,0.871248185634613,0.28722938895225525,-0.4912740886211395,0.6160213351249695,0.5343230962753296,-0.10663875192403793,0.07245170325040817,-1.0595303773880005,0.9274972677230835,0.8804444670677185,1.068099021911621,0.6413007378578186,0.05881063640117645,0.9482035040855408,0.00948363821953535,-0.9703683853149414,-0.25166934728622437,-1.0400269031524658,-0.4842381179332733,-0.8577507138252258,0.018665246665477753,1.3026552200317383,0.94735187292099,-0.7437829971313477,-0.004541307222098112,-0.49414828419685364,0.9018937349319458,-0.8369530439376831,0.1144430935382843,0.2713530659675598,0.6752561926841736,-0.090609110891819,0.3209124803543091,0.057922571897506714,0.05462540313601494,-0.08733968436717987,0.12376437336206436,-0.0015362562844529748,0.005240309052169323,0.18813829123973846,0.21233712136745453,0.16478689014911652,0.1830950379371643,-0.11818424612283707,-0.021147869527339935,0.06246035918593407,-0.6539797186851501,0.025781327858567238,0.009177170693874359,-0.0829102024435997,0.11222703754901886,-0.10425766557455063,0.04662853851914406,-0.4177860617637634,-0.4538668990135193,0.5898057222366333,-0.5324594974517822,0.336172491312027,-0.03404702618718147,0.07025647163391113,-0.44439181685447693,1.1003776788711548,0.3058731257915497,0.3970831632614136,0.2390371561050415,0.12007372826337814,-0.07931182533502579,0.23651480674743652,0.2718941271305084,0.02804185077548027,0.26339468359947205,0.0024682029616087675,0.5957651138305664,-0.3047773838043213,-0.26975035667419434,-1.48678719997406,-0.4325137734413147,-0.11282563954591751,0.15713223814964294,0.4381629228591919,-0.18669937551021576,-0.24539101123809814,-0.7995023727416992,-0.6525983810424805,0.9113166332244873,-1.2795515060424805,-0.05890264734625816,-0.02379048801958561,0.6135873794555664,-0.15400870144367218,0.29213881492614746,0.08904663473367691,0.21571123600006104,0.502575695514679,0.14851833879947662,-0.3907453417778015,0.10369572043418884,0.537193238735199,0.5971881151199341,0.6698622703552246,0.2691524922847748,0.4729086756706238,-0.3153105676174164,0.47141969203948975,-0.7248372435569763,0.5497124195098877,0.6403782367706299,-0.22718416154384613,0.1950199455022812,-0.6732750535011292,0.09938705712556839,-0.7975950241088867,-1.4987819194793701,1.1043269634246826,-0.8388078212738037,0.04555528238415718,-0.47234147787094116,-0.09227682650089264,0.5622788071632385,-0.4962726831436157,-0.2903597354888916,1.24380362033844,-0.35497841238975525,0.9669832587242126,-0.7413255572319031,-0.9488620758056641,-0.6409909129142761,0.058422744274139404,-0.2547140419483185,-0.5231419205665588,0.47916650772094727,1.3042165040969849,0.19981758296489716,1.142715573310852,1.3251234292984009,0.8913412690162659,-0.01255981158465147,-0.14229288697242737,-0.8122072219848633,0.8383307456970215,0.6204288005828857,0.8683896064758301,-0.8357220888137817,-0.1313123255968094,0.363603413105011,-0.6609274744987488,0.07388362288475037,-0.46356725692749023,-0.527099609375,0.4340176284313202,-0.45268404483795166,0.42658916115760803,-0.22271855175495148,0.2967950403690338,0.15731202065944672,0.2571016848087311,-0.3828998804092407,-0.08055076748132706,-0.37010815739631653,-0.03332197666168213,-0.34691739082336426,-0.4218141734600067,0.41232502460479736,-0.48543834686279297,-0.36791568994522095,0.3928355574607849,-0.4018826186656952,0.2772868275642395,-0.35291990637779236,0.3251008093357086,0.6915901303291321,-0.6220718622207642,0.5962062478065491,-0.4806697964668274,0.46139201521873474,-0.5697606801986694,-0.2789602279663086,0.6195841431617737,0.22055408358573914,0.1179298684000969,0.44399815797805786,0.10833632200956345,-0.36121508479118347,0.10284769535064697,0.6558138728141785,0.12102383375167847,1.3697052001953125,-0.6987746953964233,0.8327298760414124,-0.13431307673454285,0.10837556421756744,-0.9094537496566772,-0.045062873512506485,0.8273629546165466,-0.13126616179943085,-0.5705890655517578,-0.5111362934112549,-0.11353524774312973,-1.4813241958618164,0.04348955675959587,0.8498150706291199,-0.579734742641449,0.6009618639945984,-0.15060310065746307,0.36314618587493896,0.8081633448600769,0.6762951612472534,-0.6459528207778931,-0.04180186986923218,-0.9736864566802979,0.6351093053817749,-0.7590152025222778,-0.705621063709259,0.4922293424606323,0.8538983464241028,0.8336343169212341,1.0494747161865234,0.6125029921531677,0.2909175157546997,1.0601305961608887,-0.7851570248603821,1.1116832494735718,0.8080109357833862,-0.5096412897109985,0.006358779035508633,-0.6342426538467407,0.6114906072616577,-1.8650074005126953,-1.6479229927062988,1.0711814165115356,-1.6424540281295776,1.1673176288604736,-0.6724376678466797,0.12696336209774017,-0.05046653747558594,1.275717854499817,0.4242951273918152,1.4082667827606201,-0.29931357502937317,0.44545572996139526,-0.38121646642684937,-0.1452140510082245,-0.2766045331954956,0.9285987615585327,0.968102216720581,-0.033766549080610275,0.6489596962928772,0.3719301223754883,0.2168300747871399,-1.7507054805755615,0.06707768142223358,0.5823449492454529,-0.542646586894989,0.5286293029785156,-0.7703008055686951,-0.2595885097980499,-0.5881412625312805,-0.338030606508255,1.9915504455566406,-0.7172074913978577,0.9861652255058289,-0.6067097783088684,0.3960338234901428,1.48039710521698,0.993097186088562,-1.1801731586456299,0.9709552526473999,-1.6186729669570923,1.2826206684112549,-1.3248668909072876,-1.4732067584991455,0.013873961754143238,1.1594035625457764,0.8353021144866943,0.2357749044895172,1.2807942628860474,1.28519606590271,1.4406012296676636,-0.9692026376724243,1.5791027545928955,1.4596328735351562,-0.5329627394676208,-0.12373179942369461,-1.2240638732910156,1.277744174003601,-1.3456768989562988,-0.108302041888237,1.1876730918884277,-1.6512103080749512,1.306768536567688,-1.1313660144805908,0.752081036567688,0.43971800804138184,0.1062149703502655,-0.33261048793792725,-0.39905673265457153,-0.42562559247016907,0.5258545279502869,-0.5450988411903381,-0.4572865962982178,-0.24906547367572784,0.3243597149848938,0.8304146528244019,0.1224210113286972,0.4003950357437134,0.35263657569885254,0.44911736249923706,-0.11916618049144745,0.37694844603538513,0.4004685878753662,-0.08980418741703033,-0.08402951806783676,-0.3984478712081909,0.3751835823059082,-0.8225013017654419,-0.26971131563186646,0.6204301714897156,-0.49236124753952026,0.8907921314239502,-0.13352784514427185,-0.12995204329490662,-0.025893738493323326,-0.055722493678331375,0.027194224298000336,0.04053878411650658,-0.006004903465509415,0.011905538849532604,-0.025573084130883217,0.06913861632347107,-0.03664470463991165,0.001487444038502872,0.001975908176973462,0.006982812192291021,-0.015185934491455555,-0.06687071919441223,0.07608506083488464,0.02359156124293804,0.07048925757408142,-0.021839620545506477,0.07256338000297546,-0.03478763997554779,0.03535275161266327,-0.07944142073392868,0.03222755715250969,0.0031533706933259964,-0.07825445383787155,-0.02458048053085804,0.019203361123800278,0.024036815389990807,0.03238885477185249]},"hiddenLayers":[{"inputMatrix":{"rows":20,"columns":29,"weights":[0.017592227086424828,0.4496760368347168,-0.06084974855184555,0.3253350555896759,-0.07720761746168137,0.23992791771888733,-0.31611406803131104,-0.04671678692102432,0.1665067970752716,0.039968155324459076,0.6624734401702881,-0.3472689986228943,0.3453904092311859,0.070976123213768,0.3056134581565857,-0.3871729075908661,-0.044905539602041245,0.18304041028022766,-0.2695143520832062,-0.16605935990810394,-0.03589162603020668,0.031028835102915764,-0.7220185995101929,-0.5185267329216003,0.35324543714523315,-0.4912084937095642,0.6476613879203796,-0.2705520987510681,0.20963668823242188,-0.3328356146812439,0.1860969066619873,0.3819497525691986,-0.22650909423828125,-0.0002600756997708231,-0.14557096362113953,0.19590987265110016,0.41453099250793457,0.5574464797973633,0.006986505817621946,0.47034791111946106,-0.24002359807491302,0.4766782224178314,-0.37303102016448975,-0.09996777027845383,-0.23774877190589905,-0.27545636892318726,-0.05354209989309311,0.10819627344608307,-0.32931625843048096,0.07772590219974518,-0.4653075337409973,-0.5736661553382874,-0.14773114025592804,0.27803438901901245,-0.3172386884689331,0.2109028548002243,0.1863899677991867,-0.12182305753231049,-0.06020735204219818,0.5474770665168762,0.0092880018055439,0.10480152815580368,-0.032809969037771225,-0.11487023532390594,0.13436850905418396,-0.03591541200876236,0.23491187393665314,-0.01169111579656601,-0.07852999120950699,0.07801692187786102,-0.006273944862186909,-0.1455736607313156,0.12039042264223099,-0.49739715456962585,-0.05960217863321304,-0.12654152512550354,0.13183626532554626,0.1580480933189392,0.2103913277387619,0.005240456201136112,-0.34288573265075684,-0.802567183971405,0.36383160948753357,-0.5223348736763,0.6414638757705688,-0.19155870378017426,0.33247727155685425,0.16370494663715363,0.37582290172576904,-0.17888963222503662,0.09121795743703842,-0.11575622856616974,-0.11049437522888184,-0.07964348793029785,-0.05222455784678459,0.17078188061714172,0.3145003020763397,-0.36251428723335266,0.2467796504497528,-0.35214173793792725,-0.017338035628199577,0.417476624250412,-0.7251748442649841,0.03536296635866165,-0.21027611196041107,-0.0345851294696331,0.13143202662467957,0.6866791844367981,0.17988140881061554,-0.5701318979263306,-1.1514114141464233,0.5788501501083374,-0.6836155652999878,0.48054200410842896,-0.3271210491657257,0.4275520443916321,-0.03563179448246956,0.7621783018112183,0.05649982765316963,-0.11705026775598526,0.04645578935742378,-0.06514888256788254,0.03549092262983322,0.09671416878700256,0.2843509018421173,0.21513031423091888,0.47067540884017944,-0.025219235569238663,0.25568249821662903,-0.13323305547237396,0.13199450075626373,-0.6036514043807983,-0.09023639559745789,-0.04012506827712059,-0.0934767797589302,-0.06657436490058899,0.08918368816375732,-0.07133888453245163,-0.8680647611618042,-0.24333029985427856,0.5035878419876099,-0.3727475106716156,0.5617437958717346,-0.15866826474666595,0.4596032500267029,0.26829221844673157,0.05849335342645645,-0.35070985555648804,0.0013921767240390182,-0.21491406857967377,0.3013651371002197,-0.08721211552619934,0.045039430260658264,0.04643557220697403,0.2099895477294922,0.5423011183738708,0.13093754649162292,0.24928639829158783,0.08342238515615463,0.05468584597110748,-0.17552153766155243,0.2551364600658417,0.3042326867580414,-0.20860451459884644,-0.21999092400074005,-0.29790425300598145,-0.2003924399614334,-0.4037824273109436,-0.3211064040660858,0.18880939483642578,-0.14116689562797546,0.5108566880226135,-0.15835584700107574,0.09686151891946793,0.2154751420021057,0.2540840208530426,0.008255950175225735,0.1848553568124771,-0.2828739881515503,0.17361369729042053,-0.10675223916769028,0.006254243664443493,0.39065372943878174,0.21272197365760803,0.38288384675979614,-0.09039101004600525,0.2529020309448242,0.0015771316830068827,0.16211578249931335,0.0011760219931602478,0.17778781056404114,0.22692248225212097,-0.03248271718621254,-0.41642245650291443,-0.235488161444664,0.023490728810429573,-0.5352109670639038,-0.41880613565444946,0.12986120581626892,-0.33772552013397217,0.3293135464191437,-0.31990015506744385,0.19772867858409882,0.1709592342376709,0.6858690977096558,-0.12339110672473907,0.3809826672077179,-0.2804008722305298,0.07200321555137634,-0.14860649406909943,-0.10690315812826157,0.09498684853315353,0.5128471851348877,-0.23280641436576843,0.580284059047699,0.1444055438041687,0.026820290833711624,0.2734469175338745,-0.564448356628418,0.18800242245197296,-0.011994780972599983,-0.2448897659778595,0.6886277794837952,-0.02577422372996807,0.19621329009532928,-0.35421222448349,-1.1118038892745972,0.4971935451030731,-0.840496301651001,0.36523202061653137,-0.45068567991256714,0.5233837962150574,0.10575509071350098,0.19676408171653748,-0.06255591660737991,-0.062154002487659454,-0.2192947417497635,0.29790595173835754,-0.14615333080291748,0.15714231133460999,0.07957708090543747,0.056621965020895004,1.0001593828201294,-0.07916765660047531,0.4838603138923645,0.0964009240269661,0.17197361588478088,-0.25801289081573486,-0.033253807574510574,0.3331716060638428,-0.1664019227027893,-0.14798150956630707,-0.5141215324401855,-0.1682453602552414,-0.7690880298614502,-0.2327020764350891,0.4780252277851105,-0.35109037160873413,0.9726815223693848,0.009495160542428493,0.0634891539812088,0.24509115517139435,0.45847249031066895,-0.15207740664482117,0.5809087753295898,-0.22602027654647827,-0.049493879079818726,-0.11476220190525055,-0.2655811607837677,0.0898205116391182,0.2711702883243561,-0.04279375448822975,-0.17464080452919006,-0.08753516525030136,0.13153445720672607,0.4569180905818939,-0.4526372253894806,0.1370055228471756,0.07464320957660675,-0.013936331495642662,0.22066357731819153,0.1585443913936615,0.2792659103870392,-0.15883268415927887,-0.29196199774742126,0.48304739594459534,-0.3701917231082916,0.958746075630188,-0.4286755621433258,0.9211158156394958,-0.17030079662799835,0.23220539093017578,0.06725972890853882,-0.28213509917259216,-0.1357206553220749,-0.2683185636997223,0.3340188264846802,0.34096571803092957,0.5529940724372864,-0.04307226091623306,0.11328532546758652,0.06238371878862381,-0.3130871057510376,-0.35495954751968384,-0.14153335988521576,0.004752779379487038,-0.21567121148109436,-0.4725300967693329,0.2352990061044693,-0.13901810348033905,0.3228723108768463,-0.2544364333152771,-0.4403306543827057,-0.3088766932487488,-0.02022143080830574,-0.33555173873901367,0.2579672038555145,0.24349960684776306,-0.014755548909306526,0.22314342856407166,0.513907790184021,-0.27827075123786926,0.3126552104949951,-0.4275309443473816,0.529376745223999,-0.29486119747161865,-0.3988819122314453,-0.3041866421699524,0.13834615051746368,0.4980744421482086,-0.16573843359947205,0.10411645472049713,0.3667762875556946,0.23891544342041016,-0.34321799874305725,-0.049322519451379776,0.15710744261741638,-0.2816113233566284,0.015039468184113503,-0.005997013300657272,0.3669668734073639,-0.403001070022583,-0.308489054441452,0.23258058726787567,-0.17043083906173706,0.8824591636657715,-0.30549153685569763,0.12579825520515442,-0.1517302691936493,0.47915971279144287,0.12754352390766144,0.0796302855014801,-0.12589210271835327,-0.007675205823034048,-0.09505680948495865,0.21256473660469055,0.49870672821998596,0.015285569243133068,0.33330753445625305,-0.05041837692260742,0.507768452167511,-0.13673411309719086,0.12915688753128052,-0.3152296245098114,-0.06575972586870193,-0.19455409049987793,0.18736889958381653,-0.23436902463436127,-0.0363072007894516,0.02842358686029911,-0.8115262389183044,-0.7305589914321899,0.4007786512374878,-0.7819259762763977,0.30803558230400085,-0.19956420361995697,0.1360064595937729,0.19214321672916412,0.31567248702049255,-0.03369177505373955,0.01689513772726059,-0.14499971270561218,-0.06516527384519577,0.15462970733642578,0.04304903745651245,0.36577898263931274,0.21536003053188324,0.1503482609987259,-0.23955094814300537,-0.1734311580657959,0.01584024168550968,0.33924025297164917,-0.1892452985048294,-0.0178664680570364,-0.217678502202034,-0.06942170858383179,-0.17219841480255127,0.5554664731025696,0.11670581996440887,-0.4732224941253662,-0.5299797654151917,0.06743185222148895,-0.14992327988147736,0.6897415518760681,-0.16420863568782806,0.2064557522535324,0.09386942535638809,0.5207259654998779,0.07259088009595871,0.024252060800790787,-0.08374382555484772,0.21335548162460327,-0.23541003465652466,0.028714537620544434,0.1388491690158844,0.06761375814676285,0.33096304535865784,0.020581133663654327,0.5803065299987793,0.0664205551147461,0.17484214901924133,-0.26162633299827576,0.0035237856209278107,0.1714751273393631,-0.044776927679777145,-0.07365874946117401,-0.3785841166973114,0.10362979024648666,-0.662700891494751,-0.6772923469543457,0.3884075880050659,-0.5772196054458618,0.5757432579994202,-0.27622953057289124,0.2108084261417389,0.06169295683503151,0.49288082122802734,-0.07217883318662643,0.06497234106063843,-0.10908547788858414,-0.030212460085749626,-0.060024235397577286,0.08244430273771286,0.4330633282661438,0.18461525440216064,-0.013419516384601593,-0.04479089006781578,-0.054716598242521286,-0.10888279974460602,0.25583615899086,-0.5165664553642273,0.002459307201206684,-0.04226497560739517,0.005351615138351917,-0.13853038847446442,0.31046614050865173,0.01758175529539585,-0.7671747207641602,-0.8668479323387146,0.4888962507247925,-0.767856240272522,0.3970419466495514,-0.209041029214859,0.26804834604263306,-0.20956097543239594,0.2328273504972458,0.21190203726291656,-0.3743022680282593,0.043116215616464615,-0.24842670559883118,0.16406650841236115,0.3086925446987152,0.4396348297595978,-0.049903951585292816,0.29087376594543457,0.07078873366117477,0.241094708442688,-0.4189034700393677,-0.18974652886390686,-0.14058071374893188,-0.2226344794034958,-0.32666444778442383,0.09405781328678131,-0.14687134325504303,0.1546362191438675,-0.33906289935112,-0.54082852602005,-0.12496749311685562,0.08198513090610504,-0.46123114228248596,-0.26813584566116333,0.2138785421848297,0.02552410215139389,0.22341246902942657,0.5447195768356323,-0.1754835844039917,0.3161676526069641,-0.358483225107193,0.29345014691352844,-0.15697799623012543,-0.2802988588809967,-0.08393831551074982,0.27212172746658325,-0.09922275692224503,0.2507370114326477,0.09321291744709015,0.3035225570201874,0.37028375267982483,-0.5066203474998474,0.2624149024486542,0.22703444957733154,-0.21676850318908691,0.40691402554512024,0.025197833776474,0.33824121952056885,-0.5236973166465759,-0.9950739145278931,0.41817477345466614,-0.6459552645683289,0.5574607849121094,-0.4308050572872162,0.4688225984573364,0.3036400079727173,0.1264786720275879,-0.32963207364082336,-0.005143573507666588,-0.16555733978748322,0.22718720138072968,-0.012972371652722359,0.16425082087516785,0.06606343388557434,0.29597416520118713,0.4586760997772217,0.23631983995437622,0.09380681812763214,-0.07697581499814987,0.12518784403800964,-0.18228109180927277,0.3365374505519867,0.26828840374946594,-0.2446262687444687,-0.0038842279464006424,-0.3424137830734253,-0.16464263200759888,-0.5407774448394775,-0.5519394278526306,0.2108594924211502,-0.11841056495904922,0.556552529335022,-0.22453124821186066,0.19874712824821472,0.5343136191368103,0.5356923341751099,-0.5310332775115967,0.5717414617538452,-0.39135706424713135,0.3284362256526947,-0.28040578961372375,-0.33653539419174194,0.0026225894689559937,0.721904993057251,0.024290520697832108,0.3657210171222687,-0.21744787693023682,0.2960341274738312,0.7506085634231567,-0.6488473415374756,0.3135073184967041,0.3208695352077484,-0.37995150685310364,0.49879559874534607,0.07506123930215836,0.3993006944656372,-0.3389126658439636,-0.45244506001472473,0.4395703971385956,-0.5926352143287659,0.751681923866272,-0.6340454816818237,0.8938106298446655]},"inputHidden":{"rows":20,"columns":20,"weights":[0.5704193711280823,0.4946390986442566,0.6314480304718018,-0.300376296043396,0.22491908073425293,-0.4584360122680664,-0.7144085168838501,0.8161704540252686,0.9834949970245361,-0.4034302830696106,-0.14230184257030487,0.46651214361190796,-0.39111483097076416,-0.6651253700256348,0.5723181366920471,-0.24540725350379944,0.24653831124305725,0.6727195382118225,-0.6990519762039185,-0.15268175303936005,0.6907303333282471,0.48017334938049316,0.007487951777875423,-0.505915105342865,0.33345723152160645,0.3711492717266083,-0.27955690026283264,0.3935471177101135,0.3295074701309204,-0.37027186155319214,-0.2819536030292511,0.8393202424049377,-0.3731555938720703,-0.18122243881225586,0.29614296555519104,-0.23967760801315308,0.4458719491958618,0.22143669426441193,0.31418293714523315,-0.03958610072731972,0.1717747300863266,-0.03875138238072395,0.35291779041290283,-0.21848133206367493,0.2111533284187317,-0.37672266364097595,-0.033353567123413086,0.6092727184295654,0.6228516101837158,-0.28261029720306396,0.1581788808107376,0.3459259271621704,-0.09143523871898651,-0.08338215947151184,0.2986602187156677,-0.014864960685372353,-0.167481929063797,0.49716177582740784,-0.40927180647850037,-0.38769346475601196,0.6921772956848145,0.2514999210834503,0.26570600271224976,-0.1669769138097763,-0.19457846879959106,0.025092944502830505,-0.4491032660007477,0.3902418613433838,0.5399786829948425,-0.07657627761363983,-0.19287186861038208,0.3075776994228363,-0.4811979830265045,-0.2194993793964386,0.5482509136199951,-0.012942430563271046,0.16561459004878998,0.35053789615631104,0.12426407635211945,-0.03563990816473961,0.09360300749540329,0.140269935131073,0.7813721299171448,-0.6099181175231934,0.4804791510105133,-0.16580094397068024,-0.22256271541118622,0.6018304228782654,0.02602238953113556,-0.6552516222000122,-0.2305871695280075,-0.28100132942199707,-0.3791317641735077,-0.35951071977615356,0.3380018174648285,-0.37139105796813965,0.16222058236598969,0.7371110320091248,-0.1266629993915558,-0.9062880873680115,0.38956418633461,0.19775573909282684,0.1717260479927063,0.19908012449741364,0.3253202438354492,-0.05843205749988556,-0.5592723488807678,0.41396501660346985,-0.21306607127189636,-0.4716024696826935,-0.03775548189878464,0.3671397566795349,-0.22591504454612732,-0.628771960735321,0.8892248868942261,-0.017287692055106163,0.11235938221216202,0.30443325638771057,-0.09696321189403534,-0.19943642616271973,0.5370715260505676,0.41470426321029663,0.6105259656906128,-0.30743882060050964,0.7540873289108276,0.1459391564130783,-0.6063967347145081,0.7259297370910645,0.3401462137699127,-0.5842433571815491,-0.2487305998802185,0.38168543577194214,-0.46119633316993713,-0.5614187121391296,0.48560553789138794,-0.3913258910179138,0.4788206219673157,0.6296465992927551,0.06109011173248291,-0.2993961274623871,-0.0056508369743824005,0.15683148801326752,0.13437245786190033,-0.5811731219291687,0.1980004608631134,-0.2929682731628418,0.3298841416835785,0.4929822087287903,0.08227240294218063,0.0224949698895216,0.11430720239877701,0.26090532541275024,-0.084285669028759,0.1792561411857605,0.2212209850549698,-0.39639368653297424,-0.009444731287658215,0.1412504017353058,-0.16171281039714813,-0.20449210703372955,0.2759266495704651,0.14749671518802643,0.0741199478507042,0.13625337183475494,0.2902955114841461,-0.31588512659072876,-0.4199490547180176,0.6448407173156738,0.19105008244514465,-0.5602807998657227,0.06942114979028702,0.2587638199329376,0.027717383578419685,-0.5875073075294495,0.7824262380599976,-0.20549049973487854,0.11249452829360962,0.4663279950618744,-0.22065207362174988,0.17443589866161346,0.40910953283309937,0.15236057341098785,0.8866392970085144,-0.4696424603462219,0.46262019872665405,-0.1643926352262497,-0.4252425730228424,0.5777016282081604,0.0567222461104393,-0.42241016030311584,0.014425068162381649,-0.004677764605730772,-0.38057267665863037,-0.8131327033042908,0.4899870455265045,-0.18470260500907898,-0.04598405212163925,0.8843531608581543,-0.3350563049316406,-0.723090410232544,0.44964808225631714,0.2922314405441284,0.08285141736268997,-0.6306869983673096,0.4983856976032257,0.1463322937488556,-0.2619568407535553,0.2720664441585541,0.08084573596715927,-0.5463901162147522,-0.35301971435546875,0.7905097603797913,-0.38919320702552795,-0.16680258512496948,0.09413838386535645,-0.31025460362434387,0.3461809754371643,0.3522365689277649,0.29209113121032715,-0.5144903063774109,0.011809579096734524,0.2509276866912842,0.11998361349105835,-0.4305897653102875,0.5118721723556519,-0.7298128604888916,-0.3346971273422241,0.12768688797950745,0.22105181217193604,-0.42235928773880005,0.2866475284099579,-0.08466020226478577,-0.2619873285293579,-0.3704141676425934,0.25292766094207764,-0.27902185916900635,0.06829424947500229,0.20730142295360565,-0.7103893756866455,-0.5335969924926758,0.8863356113433838,0.20706386864185333,0.4418402910232544,-0.05660491809248924,-0.5628231167793274,-0.18685871362686157,-0.5622546672821045,0.8496297597885132,1.1172654628753662,0.2476152777671814,0.007526713889092207,0.6460857391357422,-0.37983500957489014,-0.33797067403793335,0.8947730660438538,0.0039809164591133595,0.2613131105899811,0.5939964652061462,-0.5272870659828186,0.16769617795944214,0.8013789653778076,0.44539326429367065,0.8355764150619507,-0.4019801914691925,0.3119885325431824,-0.20564357936382294,-0.7525328993797302,0.5947791934013367,0.5458298921585083,-0.31976571679115295,-0.3795052170753479,0.33474451303482056,-0.6598992943763733,-0.6472825407981873,0.6401869058609009,-0.2672972083091736,0.3623432517051697,0.6628178954124451,-0.17354075610637665,-0.4599648714065552,0.387055367231369,0.4212978780269623,0.5608238577842712,-0.30565229058265686,0.29907089471817017,-0.3850356340408325,-0.27547603845596313,0.7976500391960144,0.6624119281768799,-0.3241328299045563,-0.14147914946079254,0.5180476307868958,-0.3203366994857788,-0.24860253930091858,0.5700033903121948,-0.3678337037563324,0.1716667115688324,0.7084905505180359,-0.3320810794830322,0.0034552032593637705,0.835781455039978,0.25300583243370056,0.3146572709083557,-0.021621903404593468,-0.18191251158714294,-0.09828131645917892,-0.5171825885772705,0.5532487034797668,0.4189915657043457,0.017796117812395096,-0.21170711517333984,0.472028911113739,-0.3461511433124542,-0.18155348300933838,0.5401866436004639,-0.0553072914481163,0.28045591711997986,0.6127192378044128,-0.24013669788837433,0.18378902971744537,0.6366091966629028,0.27804893255233765,0.0641312450170517,-0.7693395614624023,0.3180508315563202,0.2610316872596741,-0.4731755256652832,0.1666155755519867,0.5658444166183472,-0.36283403635025024,-0.23500654101371765,1.0105292797088623,-0.520667552947998,-0.34564757347106934,0.37111741304397583,-0.4706883728504181,0.5091100931167603,0.2618720233440399,0.2621070146560669,-0.38236480951309204,0.02619386650621891,-0.31251758337020874,0.2198268473148346,-0.31123578548431396,0.13937853276729584,-0.5053057670593262,0.3876197338104248,0.6220917701721191,0.27381837368011475,-0.08744630217552185,0.24661068618297577,0.17184248566627502,0.019169406965374947,0.16580460965633392,0.30487796664237976,-0.023912739008665085,-0.2612673342227936,0.33954182267189026,-0.4208577275276184,-0.04010879248380661,0.42128583788871765,0.1304769515991211,0.26118454337120056,0.15902534127235413,0.37608346343040466,-0.15886367857456207,-0.5960820913314819,0.4046851396560669,-0.14537060260772705,-0.46047404408454895,0.038143184036016464,0.27843692898750305,-0.1031670868396759,-0.6891211271286011,0.6578676104545593,-0.08605916798114777,0.05065663158893585,0.36148184537887573,-0.29033318161964417,-0.2140643149614334,0.07901331037282944,0.24970144033432007,0.7328268885612488,-0.8517317771911621,0.6676241159439087,0.07773046940565109,-0.016141628846526146,0.5802085995674133,0.07428800314664841,-0.33662569522857666,-0.3519665598869324,0.22246801853179932,-0.6246601939201355,-0.1317325383424759,0.37585851550102234,-0.6117433905601501,0.19537214934825897,0.5783025026321411,0.10851083695888519,-0.5930132865905762]},"inputBias":{"rows":20,"columns":1,"weights":[0.031434278935194016,0.3433625400066376,-0.125169575214386,0.018687652423977852,0.2832632064819336,0.9884081482887268,0.37793153524398804,-0.26305410265922546,0.7049441337585449,-0.1531110554933548,0.9795794486999512,-0.13234001398086548,0.19300884008407593,0.1024583950638771,-0.20810209214687347,0.2683657705783844,0.3101647198200226,-0.3873741924762726,0.9400532245635986,0.11326536536216736]},"forgetMatrix":{"rows":20,"columns":29,"weights":[0.6548619270324707,0.07078732550144196,-0.5341076254844666,-0.034806523472070694,0.11267576366662979,0.09770135581493378,-0.15046851336956024,-0.37700191140174866,-0.17567114531993866,0.850111722946167,0.05885879322886467,1.1107438802719116,-0.3074561357498169,0.14524516463279724,0.4917517304420471,-0.07231020927429199,0.5944254994392395,0.4420045018196106,-0.6051113605499268,0.7609935998916626,-0.24248245358467102,0.5623711943626404,0.21730761229991913,0.32209116220474243,0.20934565365314484,-0.002385881496593356,-0.8262409567832947,-0.20586149394512177,0.30615293979644775,0.743908166885376,0.5081733465194702,-0.569236159324646,0.36297884583473206,-1.0432618856430054,0.15339449048042297,-0.10642744600772858,-0.2713013291358948,-0.5288324952125549,0.8492531180381775,-0.12041652947664261,1.1259201765060425,0.3812234401702881,0.23951202630996704,0.515677273273468,-0.5822631120681763,0.5668355822563171,-0.1051141545176506,-0.09718570113182068,1.245290994644165,-0.21310195326805115,0.3263612985610962,0.15361100435256958,-0.23665745556354523,0.6162142753601074,-0.8043433427810669,0.628903329372406,-0.519468367099762,0.6424049139022827,0.4690781533718109,-0.259575217962265,-0.3498075306415558,-0.0208893995732069,-0.2734863758087158,0.08577966690063477,-0.12694966793060303,-0.2342073917388916,-0.011541880667209625,0.39524388313293457,0.022578004747629166,0.41517719626426697,-0.562357485294342,0.19483117759227753,0.4372224509716034,0.1806424856185913,0.39572370052337646,0.0510551780462265,-0.20207639038562775,0.40238839387893677,0.03638129308819771,0.21261200308799744,0.23348233103752136,0.1902768760919571,0.2526458203792572,0.08143078535795212,0.24023231863975525,-0.1900044083595276,0.04064340889453888,0.14831595122814178,0.04005861282348633,-0.03459499403834343,-0.3871177136898041,-0.1591239869594574,0.08992650359869003,0.059882182627916336,-0.07011520117521286,-0.11650679260492325,-0.1487404704093933,0.5269847512245178,0.01473609171807766,0.16529034078121185,-0.028323305770754814,0.019425245001912117,0.10088953375816345,0.015612061135470867,-0.02513073943555355,-0.023538699373602867,-0.2262241691350937,-0.021581273525953293,0.00704377144575119,-0.30271637439727783,0.47949570417404175,-0.024100827053189278,0.05789748206734657,0.36796069145202637,0.19258467853069305,-0.4239257574081421,0.24086681008338928,-0.10994625091552734,-0.20603691041469574,-0.4539608955383301,-0.15629689395427704,0.27177920937538147,-0.1253100037574768,-0.21084561944007874,-0.2855123281478882,-0.09756726771593094,0.537310004234314,-0.1742676943540573,0.6149482727050781,0.13072088360786438,-0.1541590839624405,0.2614471912384033,0.06356624513864517,0.11414805799722672,0.18728795647621155,-0.2827931046485901,-0.2993395924568176,0.06802120804786682,-0.31737902760505676,0.43645691871643066,-0.07271408289670944,0.2933197319507599,0.1302979737520218,0.24871912598609924,-0.28195905685424805,0.39409464597702026,0.3557461202144623,-0.34374094009399414,0.07278833538293839,-0.5011677742004395,0.6123144626617432,-0.2498062700033188,-0.19040131568908691,-0.5825427174568176,0.3038467764854431,1.094401478767395,0.3222346603870392,0.502236545085907,0.24559754133224487,0.2562330961227417,-0.2517589032649994,0.1991913616657257,0.2909885048866272,-0.28712087869644165,0.3358033001422882,-0.43794015049934387,0.1670583039522171,-0.7485542297363281,0.10655441135168076,0.38572606444358826,-0.31398534774780273,1.0502828359603882,-0.19212974607944489,-0.048946283757686615,0.22063349187374115,0.3423984944820404,-0.046916693449020386,-0.16950885951519012,-0.06302473694086075,0.12903191149234772,-0.2958253026008606,-0.17719772458076477,-0.11058895289897919,0.36943501234054565,0.42084893584251404,0.3336077034473419,0.5736672878265381,0.07678257673978806,0.23828871548175812,-0.5305014848709106,0.19337935745716095,0.15733620524406433,-0.1768835335969925,0.2463107854127884,-0.20736095309257507,0.19255037605762482,-0.7255136966705322,-0.1943913996219635,0.5849103927612305,-0.758195161819458,0.17294473946094513,-0.19203384220600128,0.28477418422698975,0.05712399631738663,-0.33928731083869934,-0.1068619042634964,-0.23508380353450775,0.139532670378685,-0.36250168085098267,0.4350222945213318,0.11182435601949692,0.12936410307884216,0.1174464300274849,-0.1554461568593979,0.24501362442970276,-0.29878267645835876,-0.20542964339256287,0.05740246921777725,0.2634678781032562,0.03346896171569824,-0.08387622237205505,0.031775377690792084,0.0874411091208458,0.23592650890350342,0.015606981702148914,0.47059953212738037,0.266936331987381,0.06632480770349503,0.3860081434249878,-0.03171190991997719,0.15555639564990997,-0.11655387282371521,0.5192961096763611,0.031678732484579086,-0.5361000895500183,0.0328022725880146,-0.28458985686302185,-0.2537491023540497,0.04479894042015076,-0.07270850241184235,0.004591841250658035,0.4436323642730713,-0.5494881272315979,0.9417479634284973,-0.6211493611335754,-0.04920685663819313,0.4729357063770294,-0.33727750182151794,0.5447757244110107,-0.31869009137153625,-0.21288959681987762,0.6710661053657532,0.2807654142379761,0.470101535320282,0.1473381519317627,-1.2209539413452148,0.35690683126449585,-0.6145238876342773,-0.4352302551269531,-0.3730928599834442,0.35801947116851807,0.10869348794221878,0.5200577974319458,-0.03552618622779846,-0.018144391477108,-0.11192930489778519,0.11751099675893784,-0.1057586595416069,-0.03777436539530754,-0.14557774364948273,0.2542261481285095,0.3866535723209381,0.43166041374206543,0.5850767493247986,0.0644230917096138,0.07932271808385849,-0.30219128727912903,0.18358980119228363,0.050519805401563644,0.06059472635388374,0.06578996032476425,-0.5523056387901306,0.11754082888364792,-0.7019945979118347,-0.38035470247268677,0.4410446286201477,-0.6287404894828796,0.30521079897880554,0.06570661067962646,0.23562175035476685,0.3631472885608673,0.4695166051387787,-0.459764689207077,-0.06549599021673203,-0.42218929529190063,0.19742770493030548,0.2431425303220749,-0.17882609367370605,-0.39444953203201294,0.41074204444885254,0.924351155757904,0.3450622260570526,0.6251630187034607,0.05802230164408684,0.08291689306497574,-0.19720134139060974,0.13792727887630463,-0.019445952028036118,-0.22445626556873322,0.5709569454193115,-0.32967621088027954,0.16653834283351898,-0.10335458815097809,0.22905951738357544,0.344667911529541,-0.036591365933418274,0.786466658115387,0.0663260892033577,0.15214918553829193,0.08668091148138046,-0.3343622088432312,0.13255085051059723,-0.5664716362953186,0.03479017689824104,-0.31313252449035645,0.5589245557785034,0.0423831008374691,0.22935743629932404,-0.0076157026924192905,-0.12864883244037628,0.624464750289917,-0.7228284478187561,-0.13963152468204498,-0.201158344745636,0.36433956027030945,0.19274333119392395,-0.3148370385169983,0.248693585395813,0.12859690189361572,0.5127724409103394,0.06987475603818893,0.29549485445022583,0.3638521134853363,-0.05928898602724075,0.2549015283584595,-0.10184937715530396,0.46340641379356384,-0.5514735579490662,0.3712829351425171,0.43726518750190735,-0.335145503282547,0.11856062710285187,-0.4343985617160797,0.12715740501880646,-0.06931266188621521,-0.2259315550327301,-0.37184691429138184,0.6439772844314575,0.18553029000759125,0.96147221326828,0.29201027750968933,0.018147310242056847,0.2589300572872162,-0.2895731031894684,0.31726688146591187,0.03879055380821228,-0.2997643053531647,0.9031170606613159,-0.19484123587608337,0.219098761677742,0.034042563289403915,-0.02058572508394718,0.4451647102832794,-0.3325047791004181,0.0027496034745126963,-0.24558088183403015,0.4089699387550354,0.221297949552536,0.34615927934646606,-0.18193107843399048,-0.10807743668556213,-0.1186753511428833,0.016991805285215378,-0.21365226805210114,-0.16322262585163116,-0.07082553207874298,0.3913116157054901,0.49590733647346497,0.5271786451339722,0.7209968566894531,0.10494496673345566,0.20629294216632843,-0.4714670777320862,0.20378686487674713,0.07840848714113235,-0.12573140859603882,0.31718841195106506,-0.2849586009979248,0.16471368074417114,-0.3524167537689209,0.06637919694185257,0.513666570186615,-0.4764416515827179,0.31145524978637695,-0.03981934115290642,0.23860706388950348,0.5082296133041382,-0.14019085466861725,-0.5133421421051025,0.2856520712375641,-0.2834440767765045,-0.21438686549663544,0.11480099707841873,-0.27672505378723145,-0.08414287120103836,0.5668631196022034,-0.525334358215332,0.7426185607910156,-1.2446844577789307,0.19862909615039825,0.6012358665466309,-0.08532708138227463,0.5767802000045776,0.08261986076831818,-0.2668660581111908,0.6275022029876709,0.25247785449028015,0.5037614107131958,0.24674157798290253,-0.2621087431907654,0.30273619294166565,-0.05175883322954178,0.17171087861061096,-0.391844779253006,0.20413915812969208,0.12752890586853027,0.3681195080280304,-0.03897102177143097,-0.018764588981866837,-0.24975578486919403,0.24627524614334106,-0.04290756583213806,-0.03127578645944595,-0.295893132686615,0.1766311079263687,0.782370924949646,0.3505634367465973,0.7765068411827087,0.07587014138698578,0.002233433071523905,-0.2789873480796814,0.04436556249856949,0.03171290457248688,-0.025007350370287895,0.2657390534877777,-0.26504969596862793,0.04628429189324379,-0.3674602806568146,0.3420674204826355,0.2588437497615814,-0.2887202799320221,0.6207285523414612,0.23832853138446808,0.1739063858985901,0.42149168252944946,0.4478085935115814,-0.3528040647506714,0.029061801731586456,-0.7097485661506653,0.15986031293869019,0.20876093208789825,-0.18633972108364105,-0.4091557264328003,0.2515668272972107,0.5227627158164978,0.6547357439994812,0.45743000507354736,0.14992110431194305,0.040697794407606125,-0.23656323552131653,0.13321806490421295,0.04461607709527016,-0.09494266659021378,0.7825759649276733,-0.29773685336112976,0.1140701100230217,0.014432868920266628,-0.017139384523034096,0.3824784755706787,-0.2461291402578354,0.6795051097869873,-0.022082392126321793,0.24369923770427704,0.3482460081577301,-0.18400584161281586,-0.21027697622776031,0.18934443593025208,-0.2002027928829193,0.06598137319087982,0.046149104833602905,-0.2399546355009079,0.02304522693157196,0.2138979434967041,0.03244830295443535,0.16907145082950592,-0.3861473798751831,0.1532815396785736,0.33263662457466125,0.1542171984910965,0.3678518533706665,0.2322147786617279,-0.002065619919449091,0.14535550773143768,-0.040182605385780334,0.1666678488254547,0.06290275603532791,0.0019748166669160128,0.23435144126415253,0.03436114266514778,0.31628695130348206,-0.10184143483638763,-0.07475997507572174,0.22629201412200928,0.1643109768629074,-0.3626401722431183,-0.006007546093314886,-0.5014346241950989,0.33619794249534607,-0.15865446627140045,-0.04192883521318436,-0.4176250100135803,0.26396146416664124,0.9965550899505615,0.5049694776535034,0.3433379530906677,0.1253669112920761,0.28121477365493774,-0.2407541573047638,0.19574305415153503,0.17052458226680756,-0.29283684492111206,0.4465238153934479,-0.10623270273208618,0.02175825648009777,-0.7112841606140137,-0.03618357703089714,0.36350324749946594,-0.1888337880373001,0.8518762588500977,-0.11820341646671295,-0.09056496620178223,-0.09280602633953094,0.4209328889846802,0.10997877269983292,-0.3624403178691864,0.013033832423388958,0.3117109537124634,-0.2007272094488144,0.08384492993354797,0.10046514123678207,-0.32756075263023376,1.2963716983795166,-0.656518280506134,1.2197496891021729,-0.026907555758953094,-0.32939785718917847,0.17515785992145538,-0.17417128384113312,0.07371432334184647,0.2744534909725189,-0.9952103495597839,-0.5556021928787231,-0.13409657776355743,-1.017959475517273,0.18098802864551544,0.1341058313846588,-0.1100950688123703,0.8425976634025574,0.47855693101882935,0.007449692580848932]},"forgetHidden":{"rows":20,"columns":20,"weights":[-0.09073624759912491,-0.1845388412475586,0.306031733751297,-0.1572542041540146,0.30926966667175293,-0.24165207147598267,0.25067421793937683,0.08518096059560776,0.17447011172771454,-0.1274547278881073,0.1021675169467926,-0.14023363590240479,0.15628984570503235,0.014071359299123287,-0.12327674776315689,0.0011332491412758827,-0.20722053945064545,0.1575925648212433,-0.188531756401062,-0.227283775806427,-0.19908368587493896,0.05126179754734039,-0.06536372750997543,0.1676539182662964,0.024925516918301582,0.36108943819999695,0.12614114582538605,-0.06667372584342957,-0.3731614053249359,0.28677287697792053,-0.057578571140766144,-0.320614755153656,0.03843468055129051,0.17425096035003662,-0.09425580501556396,-0.11491388827562332,-0.06320536136627197,-0.27014121413230896,0.4225468337535858,0.14849139750003815,0.1517161875963211,-0.14470063149929047,0.3045700490474701,-0.08881635963916779,0.14576704800128937,-0.17695848643779755,-0.08100393414497375,0.21919667720794678,0.758543074131012,-0.14256782829761505,0.0985589474439621,0.03765879571437836,0.014205117709934711,-0.14553269743919373,0.29571738839149475,0.1207481324672699,0.13790981471538544,0.15801508724689484,-0.3281584084033966,-0.06360910087823868,0.04094203934073448,0.11007733643054962,0.21428535878658295,-0.4267633557319641,0.4256627559661865,0.06098564714193344,-0.12505938112735748,0.10128851234912872,0.40508654713630676,-0.11203285306692123,-0.08242987096309662,0.241708904504776,-0.3237522542476654,-0.09614446014165878,0.2515972852706909,-0.5443062782287598,0.2446705847978592,0.09889435768127441,0.07825054228305817,-0.27197152376174927,-0.24111755192279816,0.28230252861976624,0.40123626589775085,-0.8300226330757141,0.6026867032051086,-0.08726797252893448,0.16921699047088623,-0.06484866887331009,0.12982045114040375,-0.2736916244029999,-0.15446384251117706,-0.08729662746191025,-0.3167937099933624,-0.4332980215549469,0.25949588418006897,-0.8307210206985474,0.2488792985677719,0.13977548480033875,0.12986406683921814,-0.558366060256958,0.24506504833698273,-0.18222956359386444,-0.30269014835357666,0.5172615051269531,0.1404390037059784,-0.3025931119918823,-0.367024689912796,-0.17583134770393372,-0.45487770438194275,-0.17897649109363556,0.13695338368415833,0.16368500888347626,0.15295346081256866,-0.37870147824287415,0.45101770758628845,0.2338912934064865,-0.25079062581062317,-0.05631098523736,-0.28907984495162964,0.11190735548734665,-0.030165981501340866,-0.18285007774829865,-0.10950940102338791,0.4086543619632721,-0.36197760701179504,0.45723259449005127,0.29162847995758057,-0.20675478875637054,-0.2512524425983429,0.3377688229084015,0.40189945697784424,-0.04484719783067703,0.16270461678504944,0.15764515101909637,-0.24306680262088776,0.48380425572395325,-0.23495271801948547,-0.20060837268829346,0.40706729888916016,0.2764483690261841,-0.18272297084331512,-0.5395025610923767,-0.06679242849349976,0.39558517932891846,-0.29440730810165405,-0.3144206404685974,0.2816813588142395,-0.12421643733978271,0.7002471685409546,0.0744304358959198,0.6512322425842285,-0.3417830169200897,0.7171093225479126,0.275540828704834,-0.04546590894460678,0.41598275303840637,-0.42289572954177856,0.050238944590091705,-0.33763307332992554,0.09408818930387497,0.42019525170326233,0.0876067727804184,0.26510757207870483,-0.27180224657058716,0.1182260736823082,-0.32343196868896484,-0.5290364623069763,0.35177481174468994,0.0030239513143897057,-0.3513047397136688,0.032618217170238495,0.3490947484970093,-0.29083016514778137,-0.39611977338790894,0.20246027410030365,-0.21171551942825317,0.22640901803970337,0.2435922473669052,-0.3135698735713959,-0.25775983929634094,0.21559563279151917,0.31182631850242615,0.6009008884429932,-0.23613010346889496,0.1532210111618042,-0.04896862059831619,-0.29421329498291016,0.5823364853858948,0.20005804300308228,-0.23933593928813934,-0.010035056620836258,0.14349284768104553,-0.1997581124305725,-0.45207342505455017,0.48495814204216003,-0.28071272373199463,0.18291868269443512,0.532442033290863,-0.0987280011177063,-0.24368572235107422,-0.19002395868301392,-0.0840405821800232,-0.47438284754753113,1.0432144403457642,-0.5291917324066162,-0.17131344974040985,-0.0020401854999363422,-0.42998969554901123,0.16960161924362183,0.7574744820594788,0.29805988073349,-0.6625683307647705,0.5111045837402344,0.13171793520450592,0.1829729974269867,0.29392772912979126,-0.18347568809986115,-0.5837356448173523,-0.14822269976139069,0.8066471815109253,-0.08785334974527359,-0.3384198248386383,0.24341760575771332,0.23856858909130096,-0.024589916691184044,-0.03150653466582298,0.24397358298301697,-0.02041507326066494,0.5647702813148499,-0.07983697205781937,0.37154537439346313,0.08756700158119202,0.3535757064819336,0.13682988286018372,0.0030982268508523703,0.1188879907131195,-0.3609272837638855,0.04052402079105377,-0.10342314094305038,0.23599885404109955,-0.2780490219593048,-0.40104591846466064,-0.40267911553382874,0.5050340294837952,-0.47969841957092285,0.07335889339447021,0.3708578050136566,-0.24267536401748657,0.16307424008846283,0.35414689779281616,0.45558348298072815,-0.49668917059898376,0.4306137263774872,0.47593268752098083,-0.08929354697465897,0.41162657737731934,-0.3509213626384735,-0.4229847192764282,0.06909442692995071,0.1495649665594101,-0.4131186902523041,-0.25067511200904846,0.23315975069999695,-0.2616017758846283,0.34059938788414,-0.17373837530612946,0.022883061319589615,-0.08603163063526154,0.2260686457157135,-0.2739787697792053,0.3717503249645233,-0.38370171189308167,0.19673168659210205,-0.2821219861507416,0.10968928039073944,-0.17752601206302643,-0.23457275331020355,0.13427400588989258,-0.15430361032485962,-0.259676069021225,-0.11352929472923279,-0.39089804887771606,0.17291340231895447,-0.042850062251091,0.03683580085635185,-0.5158920288085938,0.050476230680942535,0.10178288072347641,0.7306702733039856,-0.1583135426044464,0.24571621417999268,-0.03654550388455391,0.0928809866309166,-0.1862381249666214,0.004774845205247402,0.029850393533706665,-0.2581424117088318,0.18900705873966217,-0.5046477913856506,-0.1262655109167099,-0.35194313526153564,-0.20188544690608978,0.09377024322748184,-0.3965253531932831,0.2519421875476837,0.06722195446491241,0.31552180647850037,-0.17435050010681152,0.17878757417201996,-0.1721167117357254,0.18295103311538696,0.032846320420503616,0.030901744961738586,-0.07828032970428467,0.04484901949763298,-0.31801164150238037,-0.03733663633465767,-0.07710662484169006,0.10562465339899063,-0.181858092546463,-0.18302923440933228,-0.20368190109729767,-0.8429972529411316,1.155116319656372,-0.5717735886573792,0.09116584062576294,0.30387961864471436,-0.29467684030532837,0.021827491000294685,0.8065983057022095,0.20930765569210052,-0.6678040623664856,0.5412326455116272,0.5578022003173828,-0.2554961144924164,0.7497246861457825,-0.1930864155292511,-0.6390209794044495,0.17525361478328705,0.5019850730895996,0.3143724799156189,-0.2344358116388321,0.2364732027053833,0.044671572744846344,-0.11072470992803574,-0.22555390000343323,-0.19909325242042542,0.1213660016655922,0.9103304147720337,-0.08186635375022888,0.1826951950788498,0.07665372639894485,0.03861420601606369,0.11049202084541321,0.3148583471775055,0.1735416203737259,-0.04956776648759842,0.23633548617362976,-0.2607499659061432,-0.12480054050683975,0.18241077661514282,-0.22767092287540436,-0.28461185097694397,0.3382193148136139,0.13330982625484467,-0.3478893041610718,-0.41813012957572937,-0.07496389746665955,-0.1548624187707901,-0.21075987815856934,0.30172044038772583,-0.019328659400343895,0.14623673260211945,-0.40920981764793396,0.3823501169681549,0.18493440747261047,-0.16228848695755005,-0.08876148611307144,-0.25003600120544434,0.04964759573340416,0.3269748091697693,0.1381189525127411,0.4421547055244446,-0.3840694725513458,0.23750124871730804,-0.1966109275817871,-0.12100262939929962,0.13250288367271423,0.36717820167541504,-0.39584970474243164,0.031703878194093704,0.513534426689148,-0.2051854282617569,-0.037497006356716156,0.14982032775878906,-0.2716338336467743,-0.02353651635348797,0.4286101162433624,-0.24940189719200134,-0.38820263743400574]},"forgetBias":{"rows":20,"columns":1,"weights":[0,0,0,0,0,0,0,0,0,0,0,0,0,0,0,0,0,0,0,0]},"outputMatrix":{"rows":20,"columns":29,"weights":[0.20896503329277039,-0.021759778261184692,-0.39735880494117737,0.14626170694828033,-0.3541102409362793,0.2870328724384308,-0.1811729222536087,-0.284944623708725,-0.18820729851722717,0.1500244289636612,0.04269541800022125,0.40090492367744446,-0.4310061037540436,0.2069963663816452,0.34287500381469727,0.025907546281814575,0.35750845074653625,0.14555266499519348,-0.42019620537757874,0.19690784811973572,0.1072157546877861,0.3299257457256317,-0.03216108679771423,-0.34096744656562805,-0.059317220002412796,0.08384555578231812,0.19035108387470245,-0.29789063334465027,0.00865574274212122,0.1986324042081833,0.23760969936847687,-0.15689757466316223,-0.056654274463653564,-0.14226336777210236,0.09567247331142426,0.17220185697078705,0.041507918387651443,-0.0007221476989798248,0.39463239908218384,0.08189839869737625,0.4772755801677704,0.10124584287405014,-0.10199624300003052,0.275587260723114,-0.4514176845550537,0.15826375782489777,0.04362783953547478,-0.4166032671928406,0.39731186628341675,0.14674749970436096,0.06957913190126419,-0.2654723525047302,-0.29220837354660034,0.2233612984418869,-0.33023932576179504,0.27889344096183777,-0.13071712851524353,0.21663948893547058,0.12349234521389008,0.6235703825950623,-0.1536232978105545,0.14629973471164703,-0.21237285435199738,0.03450635448098183,0.03901321440935135,-0.18272864818572998,-0.010341220535337925,0.31028586626052856,-0.02292655222117901,0.1781955063343048,-0.10334866493940353,0.18721316754817963,0.31747210025787354,-0.5177633762359619,0.05141853913664818,-0.07598157972097397,-0.14183183014392853,0.3974636197090149,0.2740477919578552,0.14538249373435974,-0.5416072010993958,-1.0081502199172974,0.4537000060081482,-0.6291927695274353,0.9254719614982605,-0.4129668176174164,0.301734060049057,0.17748035490512848,0.43066540360450745,-0.11282085627317429,0.011630683206021786,-0.16118590533733368,-0.2794822156429291,0.15376204252243042,0.012636677362024784,0.3531522750854492,0.22857293486595154,-0.06375584006309509,0.20372465252876282,-0.22648145258426666,-0.07074754685163498,0.4021858870983124,-0.6292785406112671,0.02938893251121044,-0.3098427653312683,-0.018475141376256943,0.14477550983428955,0.7516179084777832,-0.007977049797773361,-0.4988071024417877,-0.8783497214317322,0.4477517008781433,-0.6058239936828613,0.5766419172286987,-0.22519442439079285,0.22955438494682312,0.12643268704414368,0.8451629877090454,0.004594758618623018,-0.08133098483085632,0.015203221701085567,-0.05832444131374359,0.05706937238574028,0.007527596317231655,0.3632497489452362,0.3122483193874359,0.7562622427940369,-0.06661875545978546,0.30068033933639526,-0.13907377421855927,0.2857336401939392,-0.7187491655349731,-0.15402112901210785,0.08816742897033691,-0.1936957836151123,-0.11588463187217712,0.05878988653421402,-0.07971407473087311,-0.9910261631011963,-0.33803024888038635,0.5818762183189392,-0.4092058539390564,0.8627955913543701,-0.04732329398393631,0.5471042990684509,0.05957072973251343,0.13779772818088531,-0.2731766402721405,-0.23199455440044403,-0.10260633379220963,0.09805024415254593,0.15834079682826996,0.28683748841285706,0.19591474533081055,0.4914447069168091,0.8340731859207153,0.6103469729423523,0.04947779327630997,-0.29360470175743103,0.050513915717601776,-0.357879638671875,0.045631974935531616,-0.06218244507908821,-0.3483332693576813,0.24728406965732574,-0.11665655672550201,-0.23003914952278137,-0.7045375108718872,-0.29425951838493347,0.36688971519470215,-0.24266304075717926,0.5094705820083618,-0.057537224143743515,0.0491962805390358,0.16015277802944183,0.19033744931221008,-0.1784510314464569,0.11323654651641846,-0.10896850377321243,0.05425706505775452,-0.05858534201979637,-0.08794162422418594,-0.007525582332164049,0.5793676376342773,0.04299809783697128,0.3588119447231293,0.09256787598133087,-0.011249485425651073,0.1634843349456787,-0.4125363826751709,0.15622375905513763,0.03925221413373947,-0.6752139925956726,0.45288076996803284,-0.16717411577701569,0.16055935621261597,-0.26809272170066833,-0.3106299340724945,0.1611272245645523,-0.130132794380188,-0.06447218358516693,-0.33702605962753296,0.5140904188156128,0.18014083802700043,0.7640620470046997,-0.21713747084140778,0.21127377450466156,-0.303767591714859,0.02284228801727295,-0.02445055916905403,-0.09594717621803284,0.089847631752491,0.7631625533103943,-0.023547053337097168,0.8254891633987427,-0.01896224543452263,0.08633275330066681,0.415250688791275,-0.7160726189613342,0.29288679361343384,0.019543543457984924,-0.21926864981651306,0.9396676421165466,0.026680178940296173,0.13669230043888092,-0.35326433181762695,-0.8691688776016235,0.5942096710205078,-0.8796312808990479,0.6622247099876404,-0.3152661919593811,0.4275966286659241,0.03296845033764839,0.44050514698028564,-0.16983181238174438,-0.18437695503234863,-0.06923644989728928,-0.009784195572137833,0.12291324883699417,0.32929059863090515,0.24703778326511383,0.4616744816303253,0.5454071760177612,0.7091878056526184,0.23733888566493988,-0.24304644763469696,0.31396615505218506,-0.36521461606025696,0.2330072969198227,0.06380195915699005,-0.2764352560043335,0.451375275850296,-0.12497545033693314,-0.2237652689218521,-0.7101066708564758,-0.5120464563369751,0.5714700818061829,-0.6932144165039062,0.2952248752117157,-0.07106094807386398,0.3039248585700989,0.12971928715705872,0.7041629552841187,0.06807073950767517,0.36090290546417236,-0.24598799645900726,-0.0592777393758297,-0.15342631936073303,-0.061582520604133606,-0.011281982995569706,0.22122031450271606,0.6299282312393188,0.17915192246437073,0.41945040225982666,-0.009350643493235111,0.2577759027481079,-0.587619423866272,-0.07419151067733765,0.04069403186440468,0.08849146962165833,0.33497002720832825,-0.18518558144569397,0.02671518735587597,-0.6089061498641968,-0.35780808329582214,0.690265953540802,-0.7287564277648926,0.969326376914978,-0.19535990059375763,0.46318548917770386,0.1415010541677475,0.15863066911697388,-0.28907185792922974,-0.02759361080825329,-0.44026604294776917,0.022556772455573082,0.1481456309556961,-0.07658182084560394,-0.15563862025737762,0.28048422932624817,0.30023959279060364,0.5702003240585327,-0.512016236782074,0.051812853664159775,0.3040575087070465,-0.39049625396728516,0.19498437643051147,-0.23433850705623627,-0.40908217430114746,0.43041086196899414,0.3627568185329437,0.006692713126540184,-0.3883700668811798,-0.46262431144714355,0.3601478636264801,-0.2953251004219055,0.5359782576560974,-0.1642094999551773,-0.010259075090289116,0.16073936223983765,0.4098987877368927,-0.3241979777812958,0.11848119646310806,-0.2112981081008911,0.16248181462287903,-0.035641975700855255,-0.3423839807510376,-0.19008971750736237,0.10386450588703156,0.2500573396682739,0.15074710547924042,-0.3876512050628662,0.2199171483516693,0.3770886957645416,-0.24357791244983673,0.09979841858148575,-0.22221852838993073,-0.2377350926399231,0.15333539247512817,0.8756338953971863,0.285810649394989,-0.16160115599632263,-0.2909488081932068,0.019495872780680656,-0.15358437597751617,0.6696513295173645,-0.28824904561042786,-0.16221478581428528,0.14433225989341736,0.3401334881782532,-0.17655150592327118,0.2152625322341919,-0.2776418626308441,0.04302740842103958,0.10426023602485657,-0.16230861842632294,-0.03717424347996712,0.4168485403060913,-0.4930160641670227,0.7256836295127869,-0.3735581040382385,0.11714215576648712,0.37565749883651733,-0.47903597354888916,0.24233828485012054,-0.2629970908164978,-0.29520246386528015,0.5497269630432129,0.8093583583831787,0.20851588249206543,-0.12318819016218185,-1.0556820631027222,0.2017754465341568,-0.5073774456977844,-0.08363131433725357,-0.41570985317230225,0.39836585521698,0.15560977160930634,0.45031365752220154,-0.0825662836432457,0.01712898537516594,0.052865851670503616,-0.19316191971302032,-0.043375302106142044,0.04388770833611488,0.33882150053977966,0.43798381090164185,0.36939582228660583,0.21836018562316895,0.16987797617912292,-0.1256299465894699,0.2841101884841919,-0.6276955604553223,-0.028214357793331146,0.02603900618851185,-0.1363365203142166,0.18685144186019897,-0.04053175821900368,0.048849575221538544,-0.586179256439209,-0.5994979739189148,0.5756335258483887,-0.4196776747703552,0.2886160910129547,-0.18362782895565033,0.4886513650417328,0.20428992807865143,0.3270646035671234,-0.16024339199066162,0.23670437932014465,-0.033515334129333496,0.15101246535778046,-0.17703752219676971,-0.21260052919387817,0.009737991727888584,0.3890858292579651,0.07143676280975342,0.4665515422821045,-0.11305508762598038,0.031139550730586052,0.4179251790046692,-0.34918567538261414,0.278977632522583,0.13534514605998993,-0.24598242342472076,0.32946598529815674,-0.04182271659374237,0.27921098470687866,-0.33113107085227966,-0.7513001561164856,0.2566693127155304,-0.5457337498664856,0.1810738891363144,-0.423185259103775,0.18432757258415222,-0.09729833900928497,0.572255551815033,0.06536445021629333,0.007123204879462719,-0.05222480371594429,-0.06575636565685272,0.08514708280563354,0.13351784646511078,0.25605830550193787,0.1663864105939865,0.15153932571411133,0.13593308627605438,-0.0679464265704155,-0.1452583223581314,0.25710785388946533,-0.6842743754386902,-0.12155622243881226,-0.21760602295398712,-0.025296660140156746,0.047096386551856995,0.39149096608161926,-0.02743418514728546,-0.6721228361129761,-0.8620020747184753,0.5209280252456665,-0.7323706150054932,0.4425455331802368,-0.08023736625909805,0.19609689712524414,0.024343237280845642,0.4035068154335022,-0.12513583898544312,-0.11252348870038986,-0.1661270409822464,-0.18649248778820038,0.2911111116409302,0.23320716619491577,0.13469743728637695,0.38440826535224915,-0.012830939143896103,0.909321129322052,-0.15469036996364594,-0.27566930651664734,0.14243823289871216,-0.5639898180961609,0.07315963506698608,-0.2899269163608551,-0.28931576013565063,0.5738215446472168,0.11100132018327713,-0.1408717781305313,-0.1098497062921524,-0.5817123055458069,0.47950631380081177,-0.4974668025970459,-0.22148585319519043,-0.07053641974925995,0.27940407395362854,0.23947784304618835,0.5782191753387451,-0.23126016557216644,0.3301338851451874,-0.363518625497818,0.3345295190811157,-0.1939534693956375,-0.23247522115707397,-0.1262686550617218,0.4659421741962433,0.09904840588569641,0.34565165638923645,0.00930563360452652,0.3463665843009949,0.4624052047729492,-0.4925903379917145,0.26038816571235657,0.2609438896179199,-0.3338156044483185,0.5517279505729675,-0.02340095303952694,0.40933215618133545,-0.4955718219280243,-0.8755915760993958,0.6321102976799011,-0.6671417355537415,0.8783591985702515,-0.5045342445373535,0.4615553021430969,0.07109162956476212,0.27553629875183105,-0.29163292050361633,-0.1161455363035202,-0.23681671917438507,0.15353165566921234,0.2425495684146881,0.31073305010795593,0.19440332055091858,0.48979929089546204,0.791909396648407,0.5524089336395264,-0.04748687520623207,-0.10136862844228745,0.20641329884529114,-0.37690821290016174,0.13495437800884247,-0.11633429676294327,-0.33698803186416626,0.41562581062316895,0.05746820941567421,-0.2652718424797058,-0.6503134965896606,-0.49632778763771057,0.5127091407775879,-0.21453210711479187,0.522996187210083,-0.06378427892923355,0.11677233874797821,0.13380037248134613,0.9271124005317688,-0.18329837918281555,0.4530673921108246,-0.34262460470199585,0.14940032362937927,-0.07857715338468552,-0.16697315871715546,-0.013328786008059978,0.06937982141971588,0.9877130389213562,0.06394790858030319,0.5320416688919067,0.061578571796417236,0.10177350044250488,-0.5741103887557983,-0.29703354835510254,0.14244385063648224,0.29010745882987976,-0.08341142535209656,-0.3278275728225708,0.0578639917075634,-0.644448459148407,-0.23721718788146973,0.5863973498344421,-0.45448216795921326,1.362903118133545,-0.08603139966726303,0.40940502285957336]},"outputHidden":{"rows":20,"columns":20,"weights":[0.08220771700143814,-0.07846676558256149,0.7086955904960632,-0.6311856508255005,0.641914963722229,-0.8604041337966919,-0.13412703573703766,0.6507916450500488,0.23750001192092896,-0.7041693925857544,0.33769500255584717,0.17205147445201874,-0.06309934705495834,-0.6130000352859497,0.32397782802581787,-0.20540851354599,-0.014599603600800037,0.5605826377868652,-0.8484557867050171,-0.682453453540802,0.6184287071228027,-0.04823986440896988,1.0254168510437012,-0.30581122636795044,0.11182795464992523,-0.020200563594698906,-0.11943906545639038,1.0050818920135498,0.3667401075363159,-0.41064876317977905,0.05700327083468437,0.7996796369552612,-0.14269913733005524,-0.2550678551197052,0.7287113666534424,-0.06596117466688156,0.0662689357995987,0.9282823801040649,-0.04507805034518242,-0.31934770941734314,0.3805071711540222,-0.17455671727657318,0.6165262460708618,-0.24658633768558502,-0.012475687079131603,-0.47512200474739075,-0.09350427240133286,0.7949993014335632,0.5832433700561523,-0.33012422919273376,0.2226538360118866,0.46586552262306213,-0.018529139459133148,-0.12433731555938721,0.583808958530426,0.11895959079265594,-0.16549459099769592,0.6933488249778748,-0.3151002824306488,-0.2657228410243988,0.4368863105773926,0.14510396122932434,0.7044362425804138,-0.6972566246986389,0.41601619124412537,-0.03640430420637131,-0.5528547167778015,0.39230361580848694,0.4305954575538635,-0.10966439545154572,-0.139634907245636,-0.035463251173496246,-0.4942307472229004,-0.3894374370574951,0.8497782349586487,-0.656797468662262,0.08773937821388245,0.478289395570755,-0.07367175072431564,-0.4200402498245239,-0.25066617131233215,0.3250504732131958,0.879551351070404,-1.2037615776062012,1.0039995908737183,0.09732308238744736,-0.34659117460250854,0.3757094442844391,-0.08701711148023605,-0.613571047782898,-0.20158913731575012,-0.7774139642715454,-0.3153550326824188,-0.8202387690544128,0.40358442068099976,-0.7931373715400696,0.25738248229026794,0.6221624612808228,0.14276552200317383,-0.976051926612854,0.24414604902267456,-0.18764108419418335,0.22675101459026337,0.01539166085422039,0.330997109413147,-0.19617865979671478,-0.47453102469444275,0.41709956526756287,-0.2513730227947235,-0.3581509590148926,0.37287840247154236,0.07876988500356674,0.024713903665542603,-0.2868098318576813,0.41305550932884216,0.04685857892036438,-0.10975596308708191,0.27776864171028137,-0.1902991533279419,-0.3099825382232666,0.4954902231693268,0.1419030874967575,0.4400750994682312,-0.48777005076408386,0.46704524755477905,-0.20432186126708984,-0.22428859770298004,0.6489501595497131,0.05304854363203049,-0.8374894857406616,0.0769779160618782,0.7478378415107727,-0.23760589957237244,-0.40810808539390564,0.33099105954170227,-0.35118812322616577,0.17208610475063324,0.5591211915016174,-0.001695186016149819,-0.7053421139717102,-0.2407732456922531,-0.2832857668399811,0.5064932703971863,-0.6152628064155579,0.2295299619436264,-0.4671659469604492,0.41580843925476074,0.7006888389587402,0.4988400638103485,-0.5403845906257629,0.2592274248600006,0.36030203104019165,0.1644492745399475,0.10801222175359726,0.19212302565574646,-0.08598803728818893,-0.33116990327835083,0.6447564959526062,-0.401230126619339,-0.5165190696716309,0.045112449675798416,-0.15442851185798645,0.45759838819503784,-0.23767255246639252,0.33197659254074097,-0.5687951445579529,-0.2628268897533417,0.5206541419029236,0.05628901347517967,-0.7602463960647583,0.30341026186943054,0.0737580731511116,0.11081311851739883,-0.4579263925552368,0.5338376760482788,-0.03944984823465347,-0.30315911769866943,0.5156766176223755,-0.4260190725326538,-0.5494115948677063,0.10940684378147125,0.0830935537815094,0.8507673740386963,-0.5187879800796509,0.6752511858940125,-0.10636071115732193,-0.24551039934158325,0.5630004405975342,-0.047283779829740524,-0.5346652269363403,0.2066848874092102,0.06830357015132904,-0.16400524973869324,-0.5476056933403015,0.36386996507644653,-0.41989096999168396,-0.0975247323513031,0.6450815796852112,-0.08443736284971237,-0.7040679454803467,0.4012974500656128,-0.1875912994146347,0.7126759886741638,0.14077746868133545,0.17910748720169067,-0.002975284121930599,-0.6164937019348145,0.9847556948661804,0.3773064613342285,-0.33427247405052185,0.20475536584854126,0.892493486404419,0.04208270087838173,-0.12033523619174957,0.720465898513794,0.29324498772621155,-0.01720491051673889,0.6765373945236206,-0.009112095460295677,-0.3001282215118408,-0.06540746241807938,-0.09020359814167023,0.514331579208374,-0.40038785338401794,0.36775141954421997,-1.0469621419906616,0.08635241538286209,0.537723183631897,0.5221483111381531,-0.48593756556510925,0.5748805999755859,0.07742053270339966,0.13527150452136993,-0.3019390106201172,0.3002966344356537,-0.0895812064409256,-0.37610992789268494,0.691879391670227,-0.9847913384437561,-0.5478975176811218,0.6939592957496643,0.03447207808494568,0.8696483373641968,-0.4175395667552948,0.1556420624256134,-0.3907095193862915,-0.2637002468109131,1.0618842840194702,0.46584081649780273,-0.3879324495792389,0.15061849355697632,0.8810054063796997,-0.2531313896179199,-0.3126402497291565,0.7119438052177429,-0.14635704457759857,0.07410483807325363,0.8739903569221497,-0.34079086780548096,-0.40796443819999695,0.4927290976047516,0.03939202427864075,0.8294005393981934,-0.6166995167732239,0.41967326402664185,-0.3487386703491211,-0.5091415643692017,0.7931780219078064,0.778357207775116,-0.7055951952934265,0.05562521517276764,0.20989148318767548,-0.3137897849082947,-0.9277308583259583,0.7758246064186096,-0.3862398862838745,0.12013714015483856,0.9595819115638733,-0.30506986379623413,-0.6542136669158936,0.2572222352027893,0.01279265247285366,0.6288552284240723,-0.5357419848442078,0.3077268600463867,-0.6780176758766174,-0.06185194104909897,0.7122281789779663,0.44318312406539917,-0.9543601274490356,0.03691112622618675,0.4763006269931793,-0.1435159593820572,-0.4053509533405304,0.5096235275268555,-0.19770781695842743,-0.0666913241147995,0.815222442150116,-0.6781684756278992,-0.7397976517677307,0.7041471004486084,0.07851468026638031,0.4395092725753784,-0.32537826895713806,0.09370078146457672,-0.2076319009065628,-0.5505425930023193,0.488476037979126,0.49965399503707886,-0.24524392187595367,-0.12668167054653168,0.3347216248512268,-0.34792041778564453,-0.2514437735080719,0.8693683743476868,-0.08238112181425095,0.008371173404157162,0.6356973648071289,-0.3152921795845032,-0.16163203120231628,0.32529792189598083,0.07047384977340698,1.0852012634277344,-0.34087154269218445,0.5616427063941956,-0.13646844029426575,-0.3456287682056427,1.003801941871643,0.5046473145484924,-0.5655947923660278,0.18238525092601776,0.998974621295929,-0.061492789536714554,-0.037934310734272,0.6147096753120422,-0.05121801793575287,0.06599930673837662,0.8769881129264832,-0.15950563549995422,-0.7641561031341553,0.08020367473363876,-0.42485278844833374,0.525605320930481,-0.2925483286380768,0.1477009803056717,-0.43868130445480347,0.6009076237678528,0.9073681831359863,0.5026336312294006,-0.21873973309993744,0.3381102383136749,0.5522350668907166,0.14499130845069885,0.4624258875846863,0.4264862537384033,0.014079448767006397,-0.2813299298286438,0.6898796558380127,-0.415576696395874,-0.1116110160946846,0.006164416670799255,-0.2188998907804489,0.23783598840236664,0.030341364443302155,0.24443934857845306,-0.2558656334877014,-0.3829973042011261,0.38372090458869934,-0.20725658535957336,-0.308754026889801,0.37792977690696716,0.0720943734049797,0.19385696947574615,-0.23018254339694977,0.4015766680240631,0.17934569716453552,-0.12531787157058716,0.204462930560112,-0.107143834233284,-0.21241919696331024,-0.11885396391153336,-0.12712782621383667,0.846504271030426,-0.9108516573905945,0.8410186767578125,-0.362968772649765,-0.18711717426776886,0.6654271483421326,0.16452501714229584,-0.9995640516281128,-0.029270347207784653,-0.321391761302948,-0.045223165303468704,-0.5388055443763733,0.36198100447654724,-0.4711868464946747,-0.2258225679397583,0.9960223436355591,-0.23960839211940765,-1.0840201377868652]},"outputBias":{"rows":20,"columns":1,"weights":[0.0400528647005558,0.34688800573349,-0.1383967101573944,0.016695251688361168,0.29002290964126587,0.9148338437080383,0.3849310576915741,-0.24861568212509155,0.6141436696052551,-0.1583952009677887,1.0442900657653809,-0.12989072501659393,0.1793753057718277,0.09975029528141022,-0.2048763483762741,0.26996684074401855,0.3113129138946533,-0.39348623156547546,0.8668827414512634,0.11033152043819427]},"cellActivationMatrix":{"rows":20,"columns":29,"weights":[0.34588488936424255,0.058108411729335785,-0.2665519118309021,0.06227155774831772,-0.3779410123825073,-0.10953110456466675,-0.03211025521159172,-0.2303648740053177,0.09034836292266846,0.16617529094219208,-0.635520875453949,0.2239745408296585,-0.41487619280815125,0.11466473340988159,0.2973109483718872,-0.12467552721500397,0.40817791223526,-0.13062256574630737,0.13805711269378662,0.08050740510225296,0.11689650267362595,0.2923232913017273,0.14359767735004425,-0.5718830227851868,0.1959136724472046,-0.4508100748062134,-0.02278074435889721,-0.3838382661342621,0.1421503871679306,0.2025211900472641,-0.3101026117801666,-0.17277437448501587,-0.13005854189395905,0.2147221714258194,0.1711752712726593,-0.3115057647228241,-0.3560464382171631,-0.03251606225967407,-0.12539832293987274,0.11739073693752289,-0.18067067861557007,-0.2859956920146942,0.32337701320648193,0.33495381474494934,0.10349420458078384,0.3006274104118347,0.3591708838939667,0.20120769739151,-0.25729531049728394,0.11701852083206177,0.39469674229621887,-0.41280269622802734,-0.27097296714782715,0.08466657251119614,-0.10048726201057434,0.2649458646774292,0.02296002209186554,-0.30178484320640564,0.13394689559936523,-0.09700756520032883,-0.2374536395072937,0.043692395091056824,-0.28125685453414917,0.1352558434009552,-0.13300655782222748,-0.2294878512620926,-0.10691679269075394,0.023759305477142334,0.08711390942335129,0.14902563393115997,-0.13253599405288696,0.036861058324575424,0.21228937804698944,0.10922941565513611,0.1653132438659668,0.1850665956735611,-0.2721734344959259,-0.08931118249893188,-0.11130272597074509,0.11542904376983643,-0.1298941671848297,0.024046896025538445,-0.032895527780056,0.08465234935283661,0.2908664345741272,-0.0952211394906044,-0.38233545422554016,-0.3849113881587982,0.23739956319332123,0.4372601807117462,0.13281729817390442,0.2652532756328583,-0.22769632935523987,0.1736123114824295,0.27788954973220825,0.09179426729679108,-0.2586512863636017,-0.005571287591010332,-0.4050261676311493,0.7212148904800415,-0.1851990520954132,-0.5455660820007324,-0.09028887003660202,-0.3548187017440796,-0.18229274451732635,0.5992349982261658,-0.03369075804948807,0.07742218673229218,-0.3068217635154724,0.18712042272090912,0.3869607448577881,-0.012789113447070122,-0.0320001058280468,-0.030774088576436043,0.29913243651390076,0.35758501291275024,0.20819610357284546,0.1003476083278656,-0.27370259165763855,-0.13050831854343414,-0.0700572058558464,0.2638074457645416,-0.23013177514076233,-0.35038676857948303,-0.14343269169330597,-0.29405608773231506,0.6168915033340454,-0.45289066433906555,-0.020042328163981438,0.18634460866451263,0.2843918800354004,0.061600178480148315,0.11212341487407684,0.28492477536201477,-0.017902204766869545,-0.30574196577072144,-0.07388558983802795,0.13900209963321686,-0.4334588944911957,0.33228087425231934,0.0028192929457873106,0.1018049493432045,0.5758654475212097,0.034732162952423096,-0.12792669236660004,0.26452532410621643,0.02451408840715885,-0.1138220801949501,0.054331403225660324,-0.289939284324646,0.2971245050430298,-0.2940463423728943,-0.2879815995693207,0.023667439818382263,0.058754708617925644,0.04378029704093933,-0.19656306505203247,0.37357673048973083,0.16324478387832642,0.19999386370182037,0.01995731145143509,0.30667605996131897,0.3852904140949249,0.0968727394938469,-0.2115354835987091,-0.15691690146923065,0.17632034420967102,-0.06005304679274559,0.3516189754009247,-0.06792234629392624,-0.23508797585964203,0.13364632427692413,-0.048259273171424866,0.05695360526442528,-0.13653677701950073,-0.17020252346992493,-0.11952020972967148,0.19503219425678253,-0.17488768696784973,-0.2873009741306305,0.42153480648994446,0.2022085189819336,-0.23601587116718292,0.14231182634830475,-0.18877914547920227,0.3930862843990326,-1.0152668952941895,-0.093050017952919,-0.10256416350603104,0.08632031083106995,-0.16926276683807373,-0.47264787554740906,-0.4916645884513855,0.41463083028793335,0.3752293586730957,-0.1300814002752304,0.6551151871681213,0.24236981570720673,-0.3792710304260254,0.5284839868545532,-0.3694877624511719,-0.10229286551475525,0.0621078722178936,0.39954081177711487,-0.18156667053699493,-0.2663390636444092,-0.015610781498253345,-0.2702448070049286,-0.021991992369294167,0.013586120679974556,-0.21737462282180786,-0.024248603731393814,0.39924538135528564,-0.11905602365732193,0.531271755695343,-0.3254316449165344,0.07579506188631058,0.4879588782787323,-0.003545686136931181,0.3547644019126892,0.04164925962686539,-0.2767610251903534,0.42860284447669983,0.050034552812576294,0.17308998107910156,0.04812929034233093,-0.2294498234987259,0.16509583592414856,-0.06640589237213135,0.23500557243824005,-0.12020150572061539,0.026088180020451546,0.05010325461626053,-0.13334622979164124,-0.17618784308433533,-0.15146973729133606,-0.04810023307800293,-0.22411055862903595,0.21663817763328552,0.03504618629813194,-0.13857567310333252,0.005393792409449816,-0.39676740765571594,0.36219853162765503,-0.6680637001991272,-0.06915014237165451,0.07854171097278595,0.1072600781917572,-0.07931497693061829,-0.6007814407348633,-0.07025735080242157,0.0717536062002182,0.5215123295783997,0.00615933071821928,0.22993092238903046,-0.30126288533210754,-0.24746982753276825,0.26478102803230286,-0.14605280756950378,-0.014666393399238586,0.062389399856328964,-0.16968415677547455,-0.005381837487220764,0.31686919927597046,-0.2913307845592499,0.3702494502067566,-0.2733080983161926,0.18157237768173218,0.28056439757347107,0.20003879070281982,0.13187456130981445,0.157667875289917,-0.061054158955812454,0.433054119348526,-0.1700265258550644,-0.27572640776634216,0.17037983238697052,-0.12794114649295807,-0.14593403041362762,0.12676215171813965,-0.16987867653369904,0.06347563862800598,-0.3303411900997162,0.14935265481472015,0.17374537885189056,0.03501158207654953,0.22870945930480957,0.05149553343653679,0.3374616503715515,-0.02942049875855446,-0.3355523645877838,0.025046423077583313,0.4122127592563629,-0.24101144075393677,0.018674831837415695,-0.1648440957069397,0.3548363447189331,0.374009370803833,0.16492389142513275,-0.19189833104610443,0.3496178388595581,-0.41669872403144836,0.43842172622680664,-0.24619022011756897,-0.5543279647827148,0.10305077582597733,-0.8112465739250183,-0.4783768355846405,0.7749095559120178,-0.17169742286205292,0.15780220925807953,-0.7397727966308594,0.12128130346536636,0.4309190511703491,-0.10464785248041153,0.17817322909832,0.8100823760032654,0.6177937984466553,-0.09191398322582245,0.4217853248119354,0.023512447252869606,-0.4151380956172943,0.3945362865924835,-0.32358789443969727,0.12283166497945786,-0.26969990134239197,-0.310263991355896,-0.29982683062553406,0.13597413897514343,-0.7976683378219604,0.1730153113603592,-0.3061659336090088,0.31826508045196533,0.28947076201438904,-0.05685514211654663,0.2972460687160492,-0.00587348360568285,-0.05338160693645477,0.31684595346450806,0.05436339229345322,0.4797089397907257,0.48570334911346436,-0.27070489525794983,0.11237290501594543,-0.14651204645633698,-0.4220734238624573,-0.36377352476119995,0.2780603766441345,-0.3540382385253906,0.30713462829589844,0.4416200518608093,0.09110589325428009,-0.1789671927690506,-0.05524103343486786,0.27138981223106384,0.3657977283000946,0.08176671713590622,-0.290549635887146,0.2626522183418274,-0.33725109696388245,0.549691379070282,-0.21391156315803528,-0.6057758927345276,-0.12421522289514542,-0.48581579327583313,-0.3216734230518341,0.5549310445785522,-0.018838925287127495,0.11315800994634628,-0.42213815450668335,0.04389311373233795,0.3810383081436157,-0.011970514431595802,-0.017690176144242287,0.419861376285553,0.33759352564811707,0.1324416846036911,-0.3372366726398468,-0.08594880998134613,0.27054858207702637,0.016011124476790428,0.38569754362106323,-0.22216227650642395,0.22237391769886017,0.36093729734420776,0.16012351214885712,-0.24661508202552795,-0.32322341203689575,-0.15605761110782623,0.5864558219909668,-0.19212223589420319,-0.5654447674751282,0.09384395182132721,-0.25224053859710693,-0.1884460151195526,0.17038431763648987,-0.02924095094203949,0.07089225947856903,-0.24271106719970703,0.4541337490081787,0.3584584891796112,-0.2876332700252533,0.17183709144592285,-0.6832203269004822,0.16437512636184692,0.2677414119243622,0.3269670903682709,-0.1612520068883896,-0.19373084604740143,-0.2346998155117035,-0.31109389662742615,-0.04027165472507477,0.2792815566062927,-0.0917629599571228,0.08053631335496902,0.16846707463264465,-0.3442290723323822,0.374102920293808,-0.5209240317344666,0.14024817943572998,0.33340832591056824,0.10301896929740906,0.2621361017227173,-0.20097243785858154,0.00978316180408001,0.22621920704841614,0.3851979970932007,0.17793770134449005,-0.0037214208859950304,-0.5922947525978088,0.06267964094877243,-0.03401049226522446,0.4066716134548187,-0.1024303138256073,-0.19189700484275818,-0.2941448986530304,0.36153167486190796,0.3507503271102905,0.15060622990131378,0.3975856304168701,-0.18406519293785095,0.1394478678703308,0.3504573404788971,0.1516956388950348,-0.18752874433994293,-0.2564099133014679,-0.23445431888103485,0.6754990220069885,-0.2384950816631317,-0.5304755568504333,-0.18427807092666626,-0.42494967579841614,-0.2095869928598404,0.5063586235046387,0.10678478330373764,-0.037612881511449814,-0.3893795609474182,0.23838192224502563,0.2631704807281494,0.026019057258963585,-0.10649803280830383,-0.42489346861839294,0.21996036171913147,0.36654043197631836,0.38379594683647156,-0.3778097331523895,-0.42774686217308044,-0.2473469376564026,0.3661373555660248,-0.03681643679738045,-0.25656312704086304,-0.49432432651519775,-0.009263073094189167,0.18728308379650116,-0.030244974419474602,0.4045766294002533,-0.4166871905326843,0.10873650759458542,0.5196597576141357,0.2008976936340332,0.46549364924430847,0.30741778016090393,-0.551993191242218,0.0036911487113684416,0.04310949891805649,0.5510269999504089,-0.14461909234523773,-0.1152668222784996,-0.06822367012500763,0.21876110136508942,-0.6215280294418335,-0.09475375711917877,-0.0915260836482048,0.15424643456935883,-0.1249493733048439,-0.2915889620780945,0.15256048738956451,-0.2617071270942688,0.11467169225215912,-0.04721716418862343,-0.20198428630828857,-0.12379064410924911,0.1772814840078354,0.21521948277950287,0.15020228922367096,-0.19136257469654083,0.07861021906137466,0.1896219253540039,0.02956804633140564,0.2660374939441681,0.06067370995879173,-0.25579091906547546,0.13431695103645325,-0.23443110287189484,0.1308552473783493,-0.12712731957435608,-0.21227191388607025,0.1728881299495697,-0.08637905865907669,0.3294321596622467,-0.18487213551998138,-0.2513273358345032,0.24764250218868256,0.10056646168231964,0.04893073812127113,0.12452272325754166,-0.19031156599521637,0.339016854763031,-0.39638620615005493,-0.3042539060115814,0.0581764355301857,0.035356272011995316,0.13549207150936127,-0.2729046940803528,0.4983527362346649,0.2565819025039673,0.12695471942424774,-0.032169729471206665,0.2518296241760254,0.4687289893627167,0.07000114023685455,-0.3082151412963867,-0.4557896852493286,0.12470801919698715,-0.2207002490758896,0.5159168839454651,0.00886092521250248,-0.1581336110830307,0.27183234691619873,-0.09910842776298523,0.05047165974974632,-0.12239734828472137,-0.0010049937991425395,0.2536254823207855,-0.16350767016410828,0.06236661225557327,0.025506874546408653,0.14464177191257477,0.0725291520357132,-0.004335734527558088,0.1702064871788025,-0.06010735034942627,0.27458056807518005,0.012966873124241829,-0.10045789182186127,-0.28556156158447266,-0.06711655110120773,-0.08159517496824265,-0.173805832862854,0.08209037780761719,0.44037413597106934,0.045496612787246704,-0.13383761048316956,0.002095460193231702,0.07985058426856995,0.03274716064333916,-0.10877919942140579,-0.4110596477985382,0.2994721531867981,0.01646830514073372]},"cellActivationHidden":{"rows":20,"columns":20,"weights":[0.25407156348228455,-0.6650104522705078,-0.21739010512828827,0.17230632901191711,-0.2354276478290558,-0.24649368226528168,0.06884199380874634,-0.19713115692138672,0.5430617332458496,0.04921855032444,0.6168748140335083,0.042162876576185226,0.5339478254318237,0.027034953236579895,0.38689640164375305,0.4525264799594879,-0.609686017036438,-0.12632042169570923,-0.28713107109069824,0.1100149005651474,-0.07384627312421799,-0.4336460530757904,-0.04584308713674545,0.04995264858007431,0.035061147063970566,-0.3816077709197998,-0.07634302973747253,-0.14426428079605103,0.5230168104171753,0.1973886936903,0.9298245906829834,-0.283414751291275,0.41387587785720825,-0.18239234387874603,0.007465561386197805,0.47932180762290955,-0.5548926591873169,-0.04156838357448578,-0.34860312938690186,-0.01594582200050354,-0.1335717737674713,-0.5959570407867432,0.0997328981757164,0.28289371728897095,-0.10512762516736984,-0.5045253038406372,0.7378666400909424,-0.03223637118935585,0.48782387375831604,-0.07225781679153442,0.5958182215690613,-0.031654492020606995,0.6710689663887024,0.26732638478279114,0.06919106096029282,0.4826425015926361,-0.654083788394928,0.013314160518348217,-0.4363763630390167,0.07579285651445389,-0.09127374738454819,0.3923858404159546,-0.06384802609682083,0.1991165280342102,-0.07675061374902725,0.41947269439697266,-0.1689722239971161,-0.1325717717409134,-0.566032886505127,0.17898006737232208,-0.5179594159126282,-0.1313638836145401,-0.1380620002746582,-0.10803892463445663,-0.07024659216403961,0.024077584967017174,0.506868302822113,-0.0927342027425766,0.5625287294387817,0.19578653573989868,-0.3929058313369751,-0.19727250933647156,0.050279658287763596,-0.12620550394058228,0.3144756853580475,-0.1877897083759308,-0.1039862260222435,-0.15568219125270844,0.057432372123003006,-0.17291554808616638,0.4294970631599426,-0.3237285017967224,0.18147683143615723,-0.2495429664850235,0.11692453175783157,-0.0037084876094013453,-0.3940744400024414,0.021472880616784096,-0.2042829394340515,-0.18819081783294678,0.1633656620979309,0.22166042029857635,-0.0776221826672554,0.12771809101104736,-0.17228002846240997,0.4718271493911743,0.03132610023021698,-0.1582706868648529,-0.04346466809511185,0.06232382357120514,-0.1856369972229004,0.0556659959256649,0.002668913220986724,0.22142191231250763,-0.22386248409748077,0.11939822137355804,0.11210410296916962,-0.0834735855460167,0.4503663182258606,0.22718209028244019,-0.09171187877655029,0.31236451864242554,-0.20029060542583466,-0.06982041150331497,0.00898669008165598,0.013467173092067242,-0.10355199873447418,-0.1101560890674591,-0.3591275215148926,-0.11586281657218933,-0.6567964553833008,-0.028282281011343002,-0.24644333124160767,0.0054311491549015045,-0.2726779580116272,-0.1244264617562294,0.283038854598999,-0.0289008729159832,0.033185478299856186,-0.22751441597938538,-0.2576202154159546,-0.37815824151039124,-0.05034290626645088,0.22580215334892273,-0.44784224033355713,-0.21815599501132965,0.6648486256599426,-0.1676449030637741,0.5623533129692078,0.35163119435310364,0.5101350545883179,-0.49488893151283264,0.5237340927124023,0.4207613170146942,-0.17619280517101288,0.4652192294597626,-0.31309249997138977,-0.05637911707162857,-0.309326171875,0.26588174700737,0.1376795470714569,-0.5132543444633484,-0.13176974654197693,0.2560483515262604,-0.4669463634490967,-0.3042517304420471,0.38192465901374817,-0.07588177174329758,0.5455896854400635,0.17428317666053772,0.19908437132835388,-0.058208465576171875,0.14590828120708466,0.3734589219093323,0.10902846604585648,0.2793138027191162,-0.07107724994421005,-0.18879438936710358,-0.3150204122066498,0.07558509707450867,-0.579748272895813,-0.014671261422336102,-0.4830857813358307,-0.16152672469615936,0.21777592599391937,0.24139173328876495,0.26796478033065796,-0.3972479999065399,-0.38720253109931946,0.33778855204582214,0.1087498590350151,-0.3550594747066498,0.349988728761673,0.2741778492927551,-0.24762526154518127,-0.26502174139022827,0.09730544686317444,-0.4345604479312897,0.3134043216705322,0.2628403604030609,0.1807812750339508,0.35501131415367126,-0.06091120466589928,0.13744604587554932,-0.07158315181732178,0.8472254872322083,-0.31254979968070984,0.039055947214365005,-0.5814037322998047,0.02793520875275135,-0.5746909976005554,0.2029721736907959,-0.2561568319797516,-0.026302695274353027,0.12421658635139465,-0.3762297034263611,0.5128147602081299,-0.16212713718414307,0.7465812563896179,0.23125594854354858,-0.050034698098897934,-0.2904387414455414,-0.32677051424980164,0.0737450048327446,-0.3862743079662323,-0.00040883783367462456,0.6951080560684204,-0.23837731778621674,0.6026186347007751,0.37160682678222656,0.42232879996299744,0.07498554140329361,0.16594211757183075,0.5165587663650513,0.12481752038002014,0.2370874583721161,-0.16121117770671844,-0.2575148046016693,-0.19875581562519073,0.32325446605682373,0.1324554830789566,0.5695099234580994,-0.09309644997119904,0.16070055961608887,-0.013390080071985722,0.5012177228927612,-0.2564530372619629,0.038794782012701035,-0.7239814400672913,0.05441766232252121,-0.7545364499092102,0.1556650847196579,-0.3892696797847748,0.16673381626605988,-0.16397631168365479,-0.1862400770187378,0.5187637209892273,0.0050796871073544025,0.4594794511795044,0.008050004951655865,0.18790890276432037,0.0493624173104763,-0.26919838786125183,0.14769653975963593,-0.2999469041824341,0.5648638606071472,-0.09894684702157974,-0.22732771933078766,-0.4011489748954773,0.24827903509140015,-0.4866303503513336,0.3255144953727722,0.034482359886169434,0.2647985816001892,-0.21935759484767914,0.01057894341647625,0.33212608098983765,-0.18952427804470062,0.4985646605491638,0.11840225756168365,0.20900046825408936,-0.6078789234161377,0.0161006897687912,-0.0037977006286382675,-0.24883930385112762,-0.29220348596572876,0.12521006166934967,-0.006234671920537949,0.8027616143226624,0.10740086436271667,0.5266374945640564,0.10636928677558899,0.16151024401187897,0.31826791167259216,0.18077105283737183,0.18614602088928223,-0.422346293926239,-0.04138338565826416,-0.44729161262512207,-0.10835102945566177,0.0049803429283201694,0.5414024591445923,-0.27196642756462097,0.1978239268064499,-0.2546393573284149,0.5065681338310242,-0.17228712141513824,-0.16802236437797546,-0.5891780853271484,0.18532100319862366,-0.8677972555160522,-0.026360826566815376,-0.044944170862436295,-0.0028038364835083485,-0.1576671004295349,0.0695890337228775,0.6700937151908875,-0.09086233377456665,0.6276599168777466,0.18931248784065247,-0.22602646052837372,-0.4268180727958679,0.07339950650930405,-0.035912223160266876,-0.008821466937661171,-0.6575505137443542,0.34181955456733704,-0.07370808720588684,0.7887092232704163,0.1693459451198578,0.9590083956718445,-0.41795602440834045,0.37926220893859863,-0.03152228146791458,0.061222612857818604,0.09647763520479202,-0.37468087673187256,0.03271080181002617,-0.7840367555618286,-0.05416993051767349,-0.0314764529466629,-0.534896969795227,0.005220240447670221,0.2987808287143707,-0.21342577040195465,-0.4511495530605316,0.5354568362236023,0.05389882251620293,0.5788220167160034,0.06357727199792862,0.6302860379219055,0.022882360965013504,0.45849475264549255,0.3320871591567993,-0.06247008964419365,0.26824116706848145,-0.5388187170028687,-0.05512737110257149,-0.4240056574344635,0.21788683533668518,0.07862909138202667,0.11203579604625702,-0.18412074446678162,0.16778090596199036,-0.1821269690990448,0.4085390269756317,0.025510720908641815,-0.39143165946006775,0.05483148619532585,-0.054142728447914124,-0.09478272497653961,0.014078346081078053,0.08291562646627426,0.18294218182563782,-0.22503973543643951,0.1622326523065567,-0.027126550674438477,-0.13557396829128265,0.3067088723182678,0.09655050188302994,-0.6848540306091309,-0.05891259387135506,-0.4867303967475891,0.34194985032081604,-0.22471417486667633,0.2790464460849762,0.6731046438217163,-0.29276442527770996,-0.13669446110725403,0.23212991654872894,-0.21844202280044556,-0.7310147881507874,0.6555148959159851,0.39496904611587524,-0.4767812192440033,0.3411097824573517,0.16339972615242004,-0.49719905853271484,0.32216209173202515,0.3587680160999298]},"cellActivationBias":{"rows":20,"columns":1,"weights":[0.05089033767580986,-0.29694437980651855,-0.01818489283323288,0.15149128437042236,-0.2974952757358551,-0.7989376187324524,0.36009666323661804,0.11635567992925644,0.6338883638381958,-0.0389537438750267,0.7309626936912537,0.011381971649825573,0.2837070822715759,0.205047607421875,0.0055368863977491856,0.346200168132782,-0.3097406029701233,0.10119510442018509,-0.7282719612121582,0.18252813816070557]}},{"inputMatrix":{"rows":20,"columns":20,"weights":[0.029757769778370857,0.3423331379890442,2.2071421146392822,-1.0626355409622192,1.6111717224121094,-0.33618080615997314,-0.3105999231338501,0.917442262172699,0.6743093729019165,-1.777873158454895,-0.3978854715824127,0.33166348934173584,-0.14061911404132843,